digraph Tree {
node [shape=box] ;
0 [label="X[1] <= 0.575\nmse = 395175689775.363\nsamples = 5999\nvalue = 1082501.573"] ;
1 [label="X[4] <= 1.5\nmse = 235027409301.062\nsamples = 4474\nvalue = 933646.315"] ;
0 -> 1 [labeldistance=2.5, labelangle=45, headlabel="True"] ;
2 [label="X[2] <= -0.063\nmse = 241235343723.058\nsamples = 3158\nvalue = 1068943.333"] ;
1 -> 2 ;
3 [label="X[0] <= -0.164\nmse = 113560553642.468\nsamples = 1893\nvalue = 906383.215"] ;
2 -> 3 ;
4 [label="X[4] <= 0.5\nmse = 114347975239.305\nsamples = 1019\nvalue = 1065704.608"] ;
3 -> 4 ;
5 [label="X[3] <= 0.033\nmse = 114558413475.493\nsamples = 882\nvalue = 1105586.879"] ;
4 -> 5 ;
6 [label="X[0] <= -1.068\nmse = 89913495005.152\nsamples = 849\nvalue = 1082726.291"] ;
5 -> 6 ;
7 [label="X[3] <= -0.08\nmse = 110253561394.355\nsamples = 127\nvalue = 1309145.32"] ;
6 -> 7 ;
8 [label="X[1] <= -0.46\nmse = 85044625595.817\nsamples = 97\nvalue = 1224044.218"] ;
7 -> 8 ;
9 [label="X[3] <= -0.096\nmse = 55282202872.267\nsamples = 65\nvalue = 1147490.099"] ;
8 -> 9 ;
10 [label="X[2] <= -0.571\nmse = 46327777574.872\nsamples = 27\nvalue = 1057216.216"] ;
9 -> 10 ;
11 [label="X[3] <= -0.096\nmse = 11532250000.0\nsamples = 7\nvalue = 925500.0"] ;
10 -> 11 ;
12 [label="X[0] <= -1.469\nmse = 8286172839.506\nsamples = 6\nvalue = 904222.222"] ;
11 -> 12 ;
13 [label="mse = 0.0\nsamples = 1\nvalue = 815000.0"] ;
12 -> 13 ;
14 [label="X[5] <= -0.222\nmse = 7729346938.776\nsamples = 5\nvalue = 929714.286"] ;
12 -> 14 ;
15 [label="X[3] <= -0.099\nmse = 413040000.0\nsamples = 3\nvalue = 969600.0"] ;
14 -> 15 ;
16 [label="X[5] <= -0.339\nmse = 512000000.0\nsamples = 2\nvalue = 978000.0"] ;
15 -> 16 ;
17 [label="mse = 0.0\nsamples = 1\nvalue = 962000.0"] ;
16 -> 17 ;
18 [label="mse = 0.0\nsamples = 1\nvalue = 1010000.0"] ;
16 -> 18 ;
19 [label="mse = 0.0\nsamples = 1\nvalue = 957000.0"] ;
15 -> 19 ;
20 [label="X[5] <= 0.343\nmse = 12100000000.0\nsamples = 2\nvalue = 830000.0"] ;
14 -> 20 ;
21 [label="mse = 0.0\nsamples = 1\nvalue = 720000.0"] ;
20 -> 21 ;
22 [label="mse = 0.0\nsamples = 1\nvalue = 940000.0"] ;
20 -> 22 ;
23 [label="mse = 0.0\nsamples = 1\nvalue = 1117000.0"] ;
11 -> 23 ;
24 [label="X[5] <= -0.099\nmse = 50409537037.037\nsamples = 20\nvalue = 1106000.0"] ;
10 -> 24 ;
25 [label="X[1] <= -1.495\nmse = 44319145061.728\nsamples = 11\nvalue = 1185777.778"] ;
24 -> 25 ;
26 [label="X[3] <= -0.104\nmse = 868055555.556\nsamples = 2\nvalue = 926666.667"] ;
25 -> 26 ;
27 [label="mse = 0.0\nsamples = 1\nvalue = 947500.0"] ;
26 -> 27 ;
28 [label="mse = 0.0\nsamples = 1\nvalue = 885000.0"] ;
26 -> 28 ;
29 [label="X[0] <= -1.153\nmse = 36896106666.667\nsamples = 9\nvalue = 1237600.0"] ;
25 -> 29 ;
30 [label="X[5] <= -0.119\nmse = 9169000000.0\nsamples = 5\nvalue = 1341000.0"] ;
29 -> 30 ;
31 [label="X[3] <= -0.101\nmse = 3266666666.667\nsamples = 3\nvalue = 1410000.0"] ;
30 -> 31 ;
32 [label="X[3] <= -0.113\nmse = 100000000.0\nsamples = 2\nvalue = 1450000.0"] ;
31 -> 32 ;
33 [label="mse = 0.0\nsamples = 1\nvalue = 1460000.0"] ;
32 -> 33 ;
34 [label="mse = 0.0\nsamples = 1\nvalue = 1440000.0"] ;
32 -> 34 ;
35 [label="mse = 0.0\nsamples = 1\nvalue = 1330000.0"] ;
31 -> 35 ;
36 [label="X[5] <= -0.109\nmse = 168750000.0\nsamples = 2\nvalue = 1237500.0"] ;
30 -> 36 ;
37 [label="mse = 0.0\nsamples = 1\nvalue = 1260000.0"] ;
36 -> 37 ;
38 [label="mse = 0.0\nsamples = 1\nvalue = 1230000.0"] ;
36 -> 38 ;
39 [label="X[3] <= -0.112\nmse = 28200960000.0\nsamples = 4\nvalue = 1030800.0"] ;
29 -> 39 ;
40 [label="mse = 0.0\nsamples = 1\nvalue = 1232000.0"] ;
39 -> 40 ;
41 [label="X[0] <= -1.119\nmse = 2022222222.222\nsamples = 3\nvalue = 896666.667"] ;
39 -> 41 ;
42 [label="X[5] <= -0.155\nmse = 25000000.0\nsamples = 2\nvalue = 865000.0"] ;
41 -> 42 ;
43 [label="mse = 0.0\nsamples = 1\nvalue = 870000.0"] ;
42 -> 43 ;
44 [label="mse = 0.0\nsamples = 1\nvalue = 860000.0"] ;
42 -> 44 ;
45 [label="mse = 0.0\nsamples = 1\nvalue = 960000.0"] ;
41 -> 45 ;
46 [label="X[3] <= -0.102\nmse = 24403358024.691\nsamples = 9\nvalue = 946444.444"] ;
24 -> 46 ;
47 [label="X[3] <= -0.113\nmse = 756250000.0\nsamples = 2\nvalue = 1107500.0"] ;
46 -> 47 ;
48 [label="mse = 0.0\nsamples = 1\nvalue = 1080000.0"] ;
47 -> 48 ;
49 [label="mse = 0.0\nsamples = 1\nvalue = 1135000.0"] ;
47 -> 49 ;
50 [label="X[5] <= 0.012\nmse = 21631102040.816\nsamples = 7\nvalue = 900428.571"] ;
46 -> 50 ;
51 [label="X[5] <= -0.038\nmse = 17491805555.556\nsamples = 6\nvalue = 867166.667"] ;
50 -> 51 ;
52 [label="X[5] <= -0.088\nmse = 4829187500.0\nsamples = 4\nvalue = 950750.0"] ;
51 -> 52 ;
53 [label="X[3] <= -0.099\nmse = 25000000.0\nsamples = 2\nvalue = 1020000.0"] ;
52 -> 53 ;
54 [label="mse = 0.0\nsamples = 1\nvalue = 1025000.0"] ;
53 -> 54 ;
55 [label="mse = 0.0\nsamples = 1\nvalue = 1015000.0"] ;
53 -> 55 ;
56 [label="X[5] <= -0.07\nmse = 42250000.0\nsamples = 2\nvalue = 881500.0"] ;
52 -> 56 ;
57 [label="mse = 0.0\nsamples = 1\nvalue = 875000.0"] ;
56 -> 57 ;
58 [label="mse = 0.0\nsamples = 1\nvalue = 888000.0"] ;
56 -> 58 ;
59 [label="X[0] <= -1.298\nmse = 900000000.0\nsamples = 2\nvalue = 700000.0"] ;
51 -> 59 ;
60 [label="mse = 0.0\nsamples = 1\nvalue = 670000.0"] ;
59 -> 60 ;
61 [label="mse = 0.0\nsamples = 1\nvalue = 730000.0"] ;
59 -> 61 ;
62 [label="mse = 0.0\nsamples = 1\nvalue = 1100000.0"] ;
50 -> 62 ;
63 [label="X[3] <= -0.084\nmse = 53023870056.152\nsamples = 38\nvalue = 1199679.688"] ;
9 -> 63 ;
64 [label="X[0] <= -1.29\nmse = 57325782775.856\nsamples = 32\nvalue = 1234627.451"] ;
63 -> 64 ;
65 [label="X[3] <= -0.087\nmse = 17826965000.0\nsamples = 11\nvalue = 1137900.0"] ;
64 -> 65 ;
66 [label="X[0] <= -1.435\nmse = 12163984375.0\nsamples = 8\nvalue = 1181375.0"] ;
65 -> 66 ;
67 [label="X[5] <= -0.162\nmse = 555555555.556\nsamples = 2\nvalue = 1333333.333"] ;
66 -> 67 ;
68 [label="mse = 0.0\nsamples = 1\nvalue = 1350000.0"] ;
67 -> 68 ;
69 [label="mse = 0.0\nsamples = 1\nvalue = 1300000.0"] ;
67 -> 69 ;
70 [label="X[5] <= -0.017\nmse = 8284366863.906\nsamples = 6\nvalue = 1146307.692"] ;
66 -> 70 ;
71 [label="X[2] <= -0.5\nmse = 6405687500.0\nsamples = 5\nvalue = 1132250.0"] ;
70 -> 71 ;
72 [label="X[2] <= -0.86\nmse = 4337555555.555\nsamples = 4\nvalue = 1164666.667"] ;
71 -> 72 ;
73 [label="mse = 0.0\nsamples = 1\nvalue = 1053000.0"] ;
72 -> 73 ;
74 [label="X[5] <= -0.489\nmse = 996244897.959\nsamples = 3\nvalue = 1196571.429"] ;
72 -> 74 ;
75 [label="mse = 0.0\nsamples = 1\nvalue = 1266000.0"] ;
74 -> 75 ;
76 [label="X[3] <= -0.092\nmse = 225000000.0\nsamples = 2\nvalue = 1185000.0"] ;
74 -> 76 ;
77 [label="mse = 0.0\nsamples = 1\nvalue = 1170000.0"] ;
76 -> 77 ;
78 [label="mse = 0.0\nsamples = 1\nvalue = 1200000.0"] ;
76 -> 78 ;
79 [label="mse = 0.0\nsamples = 1\nvalue = 1035000.0"] ;
71 -> 79 ;
80 [label="mse = 0.0\nsamples = 1\nvalue = 1315000.0"] ;
70 -> 80 ;
81 [label="X[3] <= -0.084\nmse = 2677375000.0\nsamples = 3\nvalue = 964000.0"] ;
65 -> 81 ;
82 [label="X[2] <= -0.429\nmse = 650250000.0\nsamples = 2\nvalue = 915500.0"] ;
81 -> 82 ;
83 [label="mse = 0.0\nsamples = 1\nvalue = 890000.0"] ;
82 -> 83 ;
84 [label="mse = 0.0\nsamples = 1\nvalue = 941000.0"] ;
82 -> 84 ;
85 [label="mse = 0.0\nsamples = 1\nvalue = 1012500.0"] ;
81 -> 85 ;
86 [label="X[3] <= -0.087\nmse = 72878273152.966\nsamples = 21\nvalue = 1297032.258"] ;
64 -> 86 ;
87 [label="X[1] <= -1.495\nmse = 52340234375.0\nsamples = 16\nvalue = 1217375.0"] ;
86 -> 87 ;
88 [label="mse = 0.0\nsamples = 1\nvalue = 899000.0"] ;
87 -> 88 ;
89 [label="X[3] <= -0.089\nmse = 47045944214.876\nsamples = 15\nvalue = 1246318.182"] ;
87 -> 89 ;
90 [label="X[3] <= -0.091\nmse = 38868200000.0\nsamples = 13\nvalue = 1280000.0"] ;
89 -> 90 ;
91 [label="X[5] <= -0.131\nmse = 30775017751.479\nsamples = 9\nvalue = 1194538.462"] ;
90 -> 91 ;
92 [label="X[0] <= -1.136\nmse = 25287061224.49\nsamples = 6\nvalue = 1092285.714"] ;
91 -> 92 ;
93 [label="X[5] <= -0.664\nmse = 12370500000.0\nsamples = 4\nvalue = 1169000.0"] ;
92 -> 93 ;
94 [label="mse = 0.0\nsamples = 1\nvalue = 1000000.0"] ;
93 -> 94 ;
95 [label="X[0] <= -1.162\nmse = 3800222222.222\nsamples = 3\nvalue = 1225333.333"] ;
93 -> 95 ;
96 [label="mse = 0.0\nsamples = 1\nvalue = 1301000.0"] ;
95 -> 96 ;
97 [label="X[5] <= -0.643\nmse = 1406250000.0\nsamples = 2\nvalue = 1187500.0"] ;
95 -> 97 ;
98 [label="mse = 0.0\nsamples = 1\nvalue = 1150000.0"] ;
97 -> 98 ;
99 [label="mse = 0.0\nsamples = 1\nvalue = 1225000.0"] ;
97 -> 99 ;
100 [label="X[5] <= -0.156\nmse = 24200000000.0\nsamples = 2\nvalue = 990000.0"] ;
92 -> 100 ;
101 [label="mse = 0.0\nsamples = 1\nvalue = 770000.0"] ;
100 -> 101 ;
102 [label="mse = 0.0\nsamples = 1\nvalue = 1100000.0"] ;
100 -> 102 ;
103 [label="X[3] <= -0.093\nmse = 10748138888.889\nsamples = 3\nvalue = 1313833.333"] ;
91 -> 103 ;
104 [label="mse = 0.0\nsamples = 1\nvalue = 1520000.0"] ;
103 -> 104 ;
105 [label="X[5] <= -0.067\nmse = 2696640000.0\nsamples = 2\nvalue = 1272600.0"] ;
103 -> 105 ;
106 [label="mse = 0.0\nsamples = 1\nvalue = 1209000.0"] ;
105 -> 106 ;
107 [label="mse = 0.0\nsamples = 1\nvalue = 1315000.0"] ;
105 -> 107 ;
108 [label="X[2] <= -0.489\nmse = 15144204081.633\nsamples = 4\nvalue = 1438714.286"] ;
90 -> 108 ;
109 [label="X[5] <= -0.198\nmse = 285187500.0\nsamples = 2\nvalue = 1530250.0"] ;
108 -> 109 ;
110 [label="mse = 0.0\nsamples = 1\nvalue = 1540000.0"] ;
109 -> 110 ;
111 [label="mse = 0.0\nsamples = 1\nvalue = 1501000.0"] ;
109 -> 111 ;
112 [label="X[5] <= 0.041\nmse = 8888888888.889\nsamples = 2\nvalue = 1316666.667"] ;
108 -> 112 ;
113 [label="mse = 0.0\nsamples = 1\nvalue = 1250000.0"] ;
112 -> 113 ;
114 [label="mse = 0.0\nsamples = 1\nvalue = 1450000.0"] ;
112 -> 114 ;
115 [label="X[3] <= -0.089\nmse = 4032250000.0\nsamples = 2\nvalue = 909500.0"] ;
89 -> 115 ;
116 [label="mse = 0.0\nsamples = 1\nvalue = 846000.0"] ;
115 -> 116 ;
117 [label="mse = 0.0\nsamples = 1\nvalue = 973000.0"] ;
115 -> 117 ;
118 [label="X[3] <= -0.084\nmse = 46949765306.123\nsamples = 5\nvalue = 1570142.857"] ;
86 -> 118 ;
119 [label="X[0] <= -1.213\nmse = 35495360000.0\nsamples = 4\nvalue = 1477200.0"] ;
118 -> 119 ;
120 [label="mse = 0.0\nsamples = 1\nvalue = 1851000.0"] ;
119 -> 120 ;
121 [label="X[3] <= -0.085\nmse = 704687500.0\nsamples = 3\nvalue = 1383750.0"] ;
119 -> 121 ;
122 [label="X[0] <= -1.119\nmse = 355555555.555\nsamples = 2\nvalue = 1371666.667"] ;
121 -> 122 ;
123 [label="mse = 0.0\nsamples = 1\nvalue = 1345000.0"] ;
122 -> 123 ;
124 [label="mse = 0.0\nsamples = 1\nvalue = 1385000.0"] ;
122 -> 124 ;
125 [label="mse = 0.0\nsamples = 1\nvalue = 1420000.0"] ;
121 -> 125 ;
126 [label="mse = 0.0\nsamples = 1\nvalue = 1802500.0"] ;
118 -> 126 ;
127 [label="X[2] <= -0.418\nmse = 12558532544.379\nsamples = 6\nvalue = 1062576.923"] ;
63 -> 127 ;
128 [label="X[3] <= -0.082\nmse = 1920102500.0\nsamples = 3\nvalue = 1095350.0"] ;
127 -> 128 ;
129 [label="mse = 0.0\nsamples = 1\nvalue = 981000.0"] ;
128 -> 129 ;
130 [label="X[2] <= -0.62\nmse = 519135802.469\nsamples = 2\nvalue = 1108055.556"] ;
128 -> 130 ;
131 [label="mse = 0.0\nsamples = 1\nvalue = 1100000.0"] ;
130 -> 131 ;
132 [label="mse = 0.0\nsamples = 1\nvalue = 1172500.0"] ;
130 -> 132 ;
133 [label="X[3] <= -0.082\nmse = 32505555555.556\nsamples = 3\nvalue = 953333.333"] ;
127 -> 133 ;
134 [label="X[0] <= -1.136\nmse = 625000000.0\nsamples = 2\nvalue = 1080000.0"] ;
133 -> 134 ;
135 [label="mse = 0.0\nsamples = 1\nvalue = 1105000.0"] ;
134 -> 135 ;
136 [label="mse = 0.0\nsamples = 1\nvalue = 1055000.0"] ;
134 -> 136 ;
137 [label="mse = 0.0\nsamples = 1\nvalue = 700000.0"] ;
133 -> 137 ;
138 [label="X[3] <= -0.114\nmse = 109271885160.681\nsamples = 32\nvalue = 1392130.435"] ;
8 -> 138 ;
139 [label="X[5] <= -0.174\nmse = 316406250000.0\nsamples = 2\nvalue = 2162500.0"] ;
138 -> 139 ;
140 [label="mse = 0.0\nsamples = 1\nvalue = 1600000.0"] ;
139 -> 140 ;
141 [label="mse = 0.0\nsamples = 1\nvalue = 2725000.0"] ;
139 -> 141 ;
142 [label="X[5] <= -0.001\nmse = 71654634814.049\nsamples = 30\nvalue = 1357113.636"] ;
138 -> 142 ;
143 [label="X[3] <= -0.081\nmse = 70755705825.617\nsamples = 25\nvalue = 1407402.778"] ;
142 -> 143 ;
144 [label="X[5] <= -0.025\nmse = 64580136894.463\nsamples = 24\nvalue = 1431367.647"] ;
143 -> 144 ;
145 [label="X[3] <= -0.084\nmse = 48834694722.222\nsamples = 22\nvalue = 1386383.333"] ;
144 -> 145 ;
146 [label="X[3] <= -0.085\nmse = 24667177884.615\nsamples = 18\nvalue = 1360750.0"] ;
145 -> 146 ;
147 [label="X[0] <= -1.375\nmse = 19351319010.417\nsamples = 17\nvalue = 1384562.5"] ;
146 -> 147 ;
148 [label="X[3] <= -0.099\nmse = 18209061224.49\nsamples = 9\nvalue = 1429714.286"] ;
147 -> 148 ;
149 [label="X[2] <= -0.511\nmse = 42250000.0\nsamples = 2\nvalue = 1256500.0"] ;
148 -> 149 ;
150 [label="mse = 0.0\nsamples = 1\nvalue = 1263000.0"] ;
149 -> 150 ;
151 [label="mse = 0.0\nsamples = 1\nvalue = 1250000.0"] ;
149 -> 151 ;
152 [label="X[3] <= -0.095\nmse = 15402909722.222\nsamples = 7\nvalue = 1458583.333"] ;
148 -> 152 ;
153 [label="mse = 0.0\nsamples = 1\nvalue = 1662000.0"] ;
152 -> 153 ;
154 [label="X[3] <= -0.088\nmse = 8552690000.0\nsamples = 6\nvalue = 1417900.0"] ;
152 -> 154 ;
155 [label="X[5] <= -0.201\nmse = 281250000.0\nsamples = 2\nvalue = 1462500.0"] ;
154 -> 155 ;
156 [label="mse = 0.0\nsamples = 1\nvalue = 1425000.0"] ;
155 -> 156 ;
157 [label="mse = 0.0\nsamples = 1\nvalue = 1470000.0"] ;
155 -> 157 ;
158 [label="X[5] <= -0.51\nmse = 13500500000.0\nsamples = 4\nvalue = 1351000.0"] ;
154 -> 158 ;
159 [label="mse = 0.0\nsamples = 1\nvalue = 1550000.0"] ;
158 -> 159 ;
160 [label="X[3] <= -0.087\nmse = 400222222.222\nsamples = 3\nvalue = 1284666.667"] ;
158 -> 160 ;
161 [label="mse = 0.0\nsamples = 1\nvalue = 1260000.0"] ;
160 -> 161 ;
162 [label="X[3] <= -0.087\nmse = 144000000.0\nsamples = 2\nvalue = 1297000.0"] ;
160 -> 162 ;
163 [label="mse = 0.0\nsamples = 1\nvalue = 1309000.0"] ;
162 -> 163 ;
164 [label="mse = 0.0\nsamples = 1\nvalue = 1285000.0"] ;
162 -> 164 ;
165 [label="X[3] <= -0.09\nmse = 14100502500.0\nsamples = 8\nvalue = 1321350.0"] ;
147 -> 165 ;
166 [label="X[0] <= -1.256\nmse = 5057728395.062\nsamples = 7\nvalue = 1288777.778"] ;
165 -> 166 ;
167 [label="X[3] <= -0.1\nmse = 717187500.0\nsamples = 3\nvalue = 1358750.0"] ;
166 -> 167 ;
168 [label="X[3] <= -0.104\nmse = 56250000.0\nsamples = 2\nvalue = 1332500.0"] ;
167 -> 168 ;
169 [label="mse = 0.0\nsamples = 1\nvalue = 1340000.0"] ;
168 -> 169 ;
170 [label="mse = 0.0\nsamples = 1\nvalue = 1325000.0"] ;
168 -> 170 ;
171 [label="mse = 0.0\nsamples = 1\nvalue = 1385000.0"] ;
167 -> 171 ;
172 [label="X[3] <= -0.094\nmse = 1479760000.0\nsamples = 4\nvalue = 1232800.0"] ;
166 -> 172 ;
173 [label="X[5] <= -0.18\nmse = 6250000.0\nsamples = 2\nvalue = 1277500.0"] ;
172 -> 173 ;
174 [label="mse = 0.0\nsamples = 1\nvalue = 1280000.0"] ;
173 -> 174 ;
175 [label="mse = 0.0\nsamples = 1\nvalue = 1275000.0"] ;
173 -> 175 ;
176 [label="X[5] <= -0.171\nmse = 242000000.0\nsamples = 2\nvalue = 1203000.0"] ;
172 -> 176 ;
177 [label="mse = 0.0\nsamples = 1\nvalue = 1214000.0"] ;
176 -> 177 ;
178 [label="mse = 0.0\nsamples = 1\nvalue = 1181000.0"] ;
176 -> 178 ;
179 [label="mse = 0.0\nsamples = 1\nvalue = 1614500.0"] ;
165 -> 179 ;
180 [label="mse = 0.0\nsamples = 1\nvalue = 1075000.0"] ;
146 -> 180 ;
181 [label="X[0] <= -1.298\nmse = 173891500000.0\nsamples = 4\nvalue = 1553000.0"] ;
145 -> 181 ;
182 [label="mse = 0.0\nsamples = 1\nvalue = 2200000.0"] ;
181 -> 182 ;
183 [label="X[3] <= -0.082\nmse = 45806888888.889\nsamples = 3\nvalue = 1337333.333"] ;
181 -> 183 ;
184 [label="mse = 0.0\nsamples = 1\nvalue = 1060000.0"] ;
183 -> 184 ;
185 [label="X[5] <= -0.118\nmse = 11025000000.0\nsamples = 2\nvalue = 1476000.0"] ;
183 -> 185 ;
186 [label="mse = 0.0\nsamples = 1\nvalue = 1371000.0"] ;
185 -> 186 ;
187 [label="mse = 0.0\nsamples = 1\nvalue = 1581000.0"] ;
185 -> 187 ;
188 [label="X[5] <= -0.011\nmse = 53667187500.0\nsamples = 2\nvalue = 1768750.0"] ;
144 -> 188 ;
189 [label="mse = 0.0\nsamples = 1\nvalue = 2170000.0"] ;
188 -> 189 ;
190 [label="mse = 0.0\nsamples = 1\nvalue = 1635000.0"] ;
188 -> 190 ;
191 [label="mse = 0.0\nsamples = 1\nvalue = 1000000.0"] ;
143 -> 191 ;
192 [label="X[3] <= -0.1\nmse = 13107121093.75\nsamples = 5\nvalue = 1130812.5"] ;
142 -> 192 ;
193 [label="mse = 0.0\nsamples = 1\nvalue = 850000.0"] ;
192 -> 193 ;
194 [label="X[3] <= -0.087\nmse = 2105173469.388\nsamples = 4\nvalue = 1170928.571"] ;
192 -> 194 ;
195 [label="X[3] <= -0.096\nmse = 63368055.555\nsamples = 3\nvalue = 1189416.667"] ;
194 -> 195 ;
196 [label="mse = 0.0\nsamples = 1\nvalue = 1195000.0"] ;
195 -> 196 ;
197 [label="X[2] <= -0.418\nmse = 3062500.0\nsamples = 2\nvalue = 1178250.0"] ;
195 -> 197 ;
198 [label="mse = 0.0\nsamples = 1\nvalue = 1176500.0"] ;
197 -> 198 ;
199 [label="mse = 0.0\nsamples = 1\nvalue = 1180000.0"] ;
197 -> 199 ;
200 [label="mse = 0.0\nsamples = 1\nvalue = 1060000.0"] ;
194 -> 200 ;
201 [label="X[5] <= -0.582\nmse = 107512980867.347\nsamples = 30\nvalue = 1532535.714"] ;
7 -> 201 ;
202 [label="X[5] <= -0.688\nmse = 6075000000.0\nsamples = 2\nvalue = 1115000.0"] ;
201 -> 202 ;
203 [label="mse = 0.0\nsamples = 1\nvalue = 1250000.0"] ;
202 -> 203 ;
204 [label="mse = 0.0\nsamples = 1\nvalue = 1070000.0"] ;
202 -> 204 ;
205 [label="X[2] <= -0.44\nmse = 100873860946.745\nsamples = 28\nvalue = 1564653.846"] ;
201 -> 205 ;
206 [label="X[5] <= -0.194\nmse = 129164365079.365\nsamples = 13\nvalue = 1712666.667"] ;
205 -> 206 ;
207 [label="X[1] <= -0.46\nmse = 75546796875.0\nsamples = 10\nvalue = 1604125.0"] ;
206 -> 207 ;
208 [label="X[3] <= -0.056\nmse = 72716666666.667\nsamples = 3\nvalue = 1255000.0"] ;
207 -> 208 ;
209 [label="mse = 0.0\nsamples = 1\nvalue = 1625000.0"] ;
208 -> 209 ;
210 [label="X[2] <= -0.581\nmse = 6400000000.0\nsamples = 2\nvalue = 1070000.0"] ;
208 -> 210 ;
211 [label="mse = 0.0\nsamples = 1\nvalue = 990000.0"] ;
210 -> 211 ;
212 [label="mse = 0.0\nsamples = 1\nvalue = 1150000.0"] ;
210 -> 212 ;
213 [label="X[5] <= -0.486\nmse = 41580751479.29\nsamples = 7\nvalue = 1684692.308"] ;
207 -> 213 ;
214 [label="mse = 0.0\nsamples = 1\nvalue = 2161000.0"] ;
213 -> 214 ;
215 [label="X[0] <= -1.153\nmse = 24564583333.333\nsamples = 6\nvalue = 1645000.0"] ;
213 -> 215 ;
216 [label="X[5] <= -0.449\nmse = 17326000000.0\nsamples = 3\nvalue = 1498000.0"] ;
215 -> 216 ;
217 [label="mse = 0.0\nsamples = 1\nvalue = 1635000.0"] ;
216 -> 217 ;
218 [label="X[0] <= -1.256\nmse = 8022222222.222\nsamples = 2\nvalue = 1406666.667"] ;
216 -> 218 ;
219 [label="mse = 0.0\nsamples = 1\nvalue = 1470000.0"] ;
218 -> 219 ;
220 [label="mse = 0.0\nsamples = 1\nvalue = 1280000.0"] ;
218 -> 220 ;
221 [label="X[5] <= -0.209\nmse = 3275000000.0\nsamples = 3\nvalue = 1750000.0"] ;
215 -> 221 ;
222 [label="X[5] <= -0.256\nmse = 4355555555.556\nsamples = 2\nvalue = 1793333.333"] ;
221 -> 222 ;
223 [label="mse = 0.0\nsamples = 1\nvalue = 1700000.0"] ;
222 -> 223 ;
224 [label="mse = 0.0\nsamples = 1\nvalue = 1840000.0"] ;
222 -> 224 ;
225 [label="mse = 0.0\nsamples = 1\nvalue = 1717500.0"] ;
221 -> 225 ;
226 [label="X[0] <= -1.409\nmse = 142400000000.0\nsamples = 3\nvalue = 2060000.0"] ;
206 -> 226 ;
227 [label="mse = 0.0\nsamples = 1\nvalue = 1600000.0"] ;
226 -> 227 ;
228 [label="X[5] <= -0.159\nmse = 2222222222.223\nsamples = 2\nvalue = 2366666.667"] ;
226 -> 228 ;
229 [label="mse = 0.0\nsamples = 1\nvalue = 2400000.0"] ;
228 -> 229 ;
230 [label="mse = 0.0\nsamples = 1\nvalue = 2300000.0"] ;
228 -> 230 ;
231 [label="X[5] <= -0.136\nmse = 56815140478.668\nsamples = 15\nvalue = 1464387.097"] ;
205 -> 231 ;
232 [label="X[1] <= -0.46\nmse = 8888888888.889\nsamples = 2\nvalue = 1066666.667"] ;
231 -> 232 ;
233 [label="mse = 0.0\nsamples = 1\nvalue = 1200000.0"] ;
232 -> 233 ;
234 [label="mse = 0.0\nsamples = 1\nvalue = 1000000.0"] ;
232 -> 234 ;
235 [label="X[3] <= -0.038\nmse = 43186214285.714\nsamples = 13\nvalue = 1507000.0"] ;
231 -> 235 ;
236 [label="X[0] <= -1.375\nmse = 32437703703.704\nsamples = 12\nvalue = 1528000.0"] ;
235 -> 236 ;
237 [label="mse = 0.0\nsamples = 1\nvalue = 1265000.0"] ;
236 -> 237 ;
238 [label="X[3] <= -0.072\nmse = 23957584120.983\nsamples = 11\nvalue = 1573739.13"] ;
236 -> 238 ;
239 [label="X[1] <= -0.46\nmse = 2485802469.136\nsamples = 5\nvalue = 1405555.556"] ;
238 -> 239 ;
240 [label="X[2] <= -0.418\nmse = 633673469.387\nsamples = 3\nvalue = 1428571.429"] ;
239 -> 240 ;
241 [label="mse = 0.0\nsamples = 1\nvalue = 1480000.0"] ;
240 -> 241 ;
242 [label="X[5] <= 0.022\nmse = 225000000.0\nsamples = 2\nvalue = 1420000.0"] ;
240 -> 242 ;
243 [label="mse = 0.0\nsamples = 1\nvalue = 1435000.0"] ;
242 -> 243 ;
244 [label="mse = 0.0\nsamples = 1\nvalue = 1405000.0"] ;
242 -> 244 ;
245 [label="X[5] <= -0.041\nmse = 625000000.0\nsamples = 2\nvalue = 1325000.0"] ;
239 -> 245 ;
246 [label="mse = 0.0\nsamples = 1\nvalue = 1300000.0"] ;
245 -> 246 ;
247 [label="mse = 0.0\nsamples = 1\nvalue = 1350000.0"] ;
245 -> 247 ;
248 [label="X[5] <= 0.035\nmse = 7887693877.551\nsamples = 6\nvalue = 1681857.143"] ;
238 -> 248 ;
249 [label="X[5] <= -0.089\nmse = 1873416666.667\nsamples = 5\nvalue = 1649500.0"] ;
248 -> 249 ;
250 [label="X[3] <= -0.059\nmse = 18750000.0\nsamples = 2\nvalue = 1707500.0"] ;
249 -> 250 ;
251 [label="mse = 0.0\nsamples = 1\nvalue = 1700000.0"] ;
250 -> 251 ;
252 [label="mse = 0.0\nsamples = 1\nvalue = 1710000.0"] ;
250 -> 252 ;
253 [label="X[0] <= -1.136\nmse = 277750000.0\nsamples = 3\nvalue = 1620500.0"] ;
249 -> 253 ;
254 [label="X[5] <= 0.016\nmse = 40960000.0\nsamples = 2\nvalue = 1632800.0"] ;
253 -> 254 ;
255 [label="mse = 0.0\nsamples = 1\nvalue = 1636000.0"] ;
254 -> 255 ;
256 [label="mse = 0.0\nsamples = 1\nvalue = 1620000.0"] ;
254 -> 256 ;
257 [label="mse = 0.0\nsamples = 1\nvalue = 1600000.0"] ;
253 -> 257 ;
258 [label="mse = 0.0\nsamples = 1\nvalue = 1876000.0"] ;
248 -> 258 ;
259 [label="mse = 0.0\nsamples = 1\nvalue = 940000.0"] ;
235 -> 259 ;
260 [label="X[3] <= -0.084\nmse = 75972788527.813\nsamples = 722\nvalue = 1043508.66"] ;
6 -> 260 ;
261 [label="X[3] <= -0.099\nmse = 40925210730.061\nsamples = 106\nvalue = 798195.376"] ;
260 -> 261 ;
262 [label="X[1] <= -0.46\nmse = 46550109954.186\nsamples = 35\nvalue = 650867.347"] ;
261 -> 262 ;
263 [label="X[1] <= -1.495\nmse = 24394046938.775\nsamples = 24\nvalue = 564785.714"] ;
262 -> 263 ;
264 [label="X[5] <= -0.894\nmse = 2092408163.265\nsamples = 4\nvalue = 390857.143"] ;
263 -> 264 ;
265 [label="mse = 0.0\nsamples = 1\nvalue = 470000.0"] ;
264 -> 265 ;
266 [label="X[0] <= -0.795\nmse = 1223222222.222\nsamples = 3\nvalue = 377666.667"] ;
264 -> 266 ;
267 [label="mse = 0.0\nsamples = 1\nvalue = 412000.0"] ;
266 -> 267 ;
268 [label="X[2] <= -0.511\nmse = 88888888.889\nsamples = 2\nvalue = 343333.333"] ;
266 -> 268 ;
269 [label="mse = 0.0\nsamples = 1\nvalue = 350000.0"] ;
268 -> 269 ;
270 [label="mse = 0.0\nsamples = 1\nvalue = 330000.0"] ;
268 -> 270 ;
271 [label="X[0] <= -0.505\nmse = 20515972895.408\nsamples = 20\nvalue = 608267.857"] ;
263 -> 271 ;
272 [label="X[2] <= -0.461\nmse = 12250062500.0\nsamples = 13\nvalue = 670083.333"] ;
271 -> 272 ;
273 [label="X[5] <= -0.2\nmse = 9868700255.102\nsamples = 11\nvalue = 636178.571"] ;
272 -> 273 ;
274 [label="X[0] <= -0.778\nmse = 8069640495.868\nsamples = 9\nvalue = 665863.636"] ;
273 -> 274 ;
275 [label="X[2] <= -0.538\nmse = 575109375.0\nsamples = 6\nvalue = 712875.0"] ;
274 -> 275 ;
276 [label="X[3] <= -0.107\nmse = 370138888.889\nsamples = 5\nvalue = 722833.333"] ;
275 -> 276 ;
277 [label="X[5] <= -0.336\nmse = 267187500.0\nsamples = 3\nvalue = 713750.0"] ;
276 -> 277 ;
278 [label="X[0] <= -0.906\nmse = 50000000.0\nsamples = 2\nvalue = 705000.0"] ;
277 -> 278 ;
279 [label="mse = 0.0\nsamples = 1\nvalue = 715000.0"] ;
278 -> 279 ;
280 [label="mse = 0.0\nsamples = 1\nvalue = 700000.0"] ;
278 -> 280 ;
281 [label="mse = 0.0\nsamples = 1\nvalue = 740000.0"] ;
277 -> 281 ;
282 [label="X[5] <= -0.862\nmse = 81000000.0\nsamples = 2\nvalue = 741000.0"] ;
276 -> 282 ;
283 [label="mse = 0.0\nsamples = 1\nvalue = 750000.0"] ;
282 -> 283 ;
284 [label="mse = 0.0\nsamples = 1\nvalue = 732000.0"] ;
282 -> 284 ;
285 [label="mse = 0.0\nsamples = 1\nvalue = 683000.0"] ;
275 -> 285 ;
286 [label="X[5] <= -0.587\nmse = 6445500000.0\nsamples = 3\nvalue = 540500.0"] ;
274 -> 286 ;
287 [label="mse = 0.0\nsamples = 1\nvalue = 636500.0"] ;
286 -> 287 ;
288 [label="X[5] <= -0.518\nmse = 2756250000.0\nsamples = 2\nvalue = 492500.0"] ;
286 -> 288 ;
289 [label="mse = 0.0\nsamples = 1\nvalue = 440000.0"] ;
288 -> 289 ;
290 [label="mse = 0.0\nsamples = 1\nvalue = 545000.0"] ;
288 -> 290 ;
291 [label="X[5] <= -0.189\nmse = 1386888888.889\nsamples = 2\nvalue = 527333.333"] ;
273 -> 291 ;
292 [label="mse = 0.0\nsamples = 1\nvalue = 501000.0"] ;
291 -> 292 ;
293 [label="mse = 0.0\nsamples = 1\nvalue = 580000.0"] ;
291 -> 293 ;
294 [label="X[5] <= 0.109\nmse = 2479687500.0\nsamples = 2\nvalue = 788750.0"] ;
272 -> 294 ;
295 [label="mse = 0.0\nsamples = 1\nvalue = 760000.0"] ;
294 -> 295 ;
296 [label="mse = 0.0\nsamples = 1\nvalue = 875000.0"] ;
294 -> 296 ;
297 [label="X[0] <= -0.232\nmse = 16136000000.0\nsamples = 7\nvalue = 497000.0"] ;
271 -> 297 ;
298 [label="X[0] <= -0.283\nmse = 4441836734.694\nsamples = 4\nvalue = 437142.857"] ;
297 -> 298 ;
299 [label="X[3] <= -0.111\nmse = 376000000.0\nsamples = 3\nvalue = 478000.0"] ;
298 -> 299 ;
300 [label="X[5] <= -1.179\nmse = 88888888.889\nsamples = 2\nvalue = 463333.333"] ;
299 -> 300 ;
301 [label="mse = 0.0\nsamples = 1\nvalue = 470000.0"] ;
300 -> 301 ;
302 [label="mse = 0.0\nsamples = 1\nvalue = 450000.0"] ;
300 -> 302 ;
303 [label="mse = 0.0\nsamples = 1\nvalue = 500000.0"] ;
299 -> 303 ;
304 [label="mse = 0.0\nsamples = 1\nvalue = 335000.0"] ;
298 -> 304 ;
305 [label="X[5] <= -0.413\nmse = 15555555555.556\nsamples = 3\nvalue = 636666.667"] ;
297 -> 305 ;
306 [label="X[3] <= -0.116\nmse = 10000000000.0\nsamples = 2\nvalue = 570000.0"] ;
305 -> 306 ;
307 [label="mse = 0.0\nsamples = 1\nvalue = 670000.0"] ;
306 -> 307 ;
308 [label="mse = 0.0\nsamples = 1\nvalue = 470000.0"] ;
306 -> 308 ;
309 [label="mse = 0.0\nsamples = 1\nvalue = 770000.0"] ;
305 -> 309 ;
310 [label="X[0] <= -0.906\nmse = 37102352040.816\nsamples = 11\nvalue = 866071.429"] ;
262 -> 310 ;
311 [label="X[3] <= -0.114\nmse = 26656888888.889\nsamples = 3\nvalue = 1056333.333"] ;
310 -> 311 ;
312 [label="X[5] <= -0.644\nmse = 1225000000.0\nsamples = 2\nvalue = 1170000.0"] ;
311 -> 312 ;
313 [label="mse = 0.0\nsamples = 1\nvalue = 1205000.0"] ;
312 -> 313 ;
314 [label="mse = 0.0\nsamples = 1\nvalue = 1135000.0"] ;
312 -> 314 ;
315 [label="mse = 0.0\nsamples = 1\nvalue = 829000.0"] ;
311 -> 315 ;
316 [label="X[5] <= -0.416\nmse = 27385966942.149\nsamples = 8\nvalue = 814181.818"] ;
310 -> 316 ;
317 [label="X[5] <= -0.921\nmse = 31231609375.0\nsamples = 6\nvalue = 854125.0"] ;
316 -> 317 ;
318 [label="X[5] <= -0.991\nmse = 8112222222.222\nsamples = 4\nvalue = 764666.667"] ;
317 -> 318 ;
319 [label="X[5] <= -1.075\nmse = 3227040000.0\nsamples = 3\nvalue = 797600.0"] ;
318 -> 319 ;
320 [label="X[0] <= -0.462\nmse = 225000000.0\nsamples = 2\nvalue = 770000.0"] ;
319 -> 320 ;
321 [label="mse = 0.0\nsamples = 1\nvalue = 755000.0"] ;
320 -> 321 ;
322 [label="mse = 0.0\nsamples = 1\nvalue = 785000.0"] ;
320 -> 322 ;
323 [label="mse = 0.0\nsamples = 1\nvalue = 908000.0"] ;
319 -> 323 ;
324 [label="mse = 0.0\nsamples = 1\nvalue = 600000.0"] ;
318 -> 324 ;
325 [label="X[2] <= -0.642\nmse = 4556250000.0\nsamples = 2\nvalue = 1122500.0"] ;
317 -> 325 ;
326 [label="mse = 0.0\nsamples = 1\nvalue = 1055000.0"] ;
325 -> 326 ;
327 [label="mse = 0.0\nsamples = 1\nvalue = 1190000.0"] ;
325 -> 327 ;
328 [label="X[2] <= -0.532\nmse = 1530888888.889\nsamples = 2\nvalue = 707666.667"] ;
316 -> 328 ;
329 [label="mse = 0.0\nsamples = 1\nvalue = 680000.0"] ;
328 -> 329 ;
330 [label="mse = 0.0\nsamples = 1\nvalue = 763000.0"] ;
328 -> 330 ;
331 [label="X[0] <= -0.641\nmse = 26735901505.593\nsamples = 71\nvalue = 856413.71"] ;
261 -> 331 ;
332 [label="X[5] <= -0.263\nmse = 22733306436.48\nsamples = 41\nvalue = 920301.37"] ;
331 -> 332 ;
333 [label="X[3] <= -0.087\nmse = 17591346310.548\nsamples = 26\nvalue = 856808.511"] ;
332 -> 333 ;
334 [label="X[5] <= -0.654\nmse = 8654090200.831\nsamples = 19\nvalue = 820407.895"] ;
333 -> 334 ;
335 [label="X[2] <= -0.811\nmse = 6031089843.75\nsamples = 8\nvalue = 904687.5"] ;
334 -> 335 ;
336 [label="X[5] <= -0.682\nmse = 5081943877.551\nsamples = 7\nvalue = 889642.857"] ;
335 -> 336 ;
337 [label="X[5] <= -1.004\nmse = 1478400000.0\nsamples = 5\nvalue = 863000.0"] ;
336 -> 337 ;
338 [label="mse = 0.0\nsamples = 1\nvalue = 945000.0"] ;
337 -> 338 ;
339 [label="X[0] <= -0.752\nmse = 812543209.877\nsamples = 4\nvalue = 853888.889"] ;
337 -> 339 ;
340 [label="X[5] <= -0.865\nmse = 280750000.0\nsamples = 3\nvalue = 845500.0"] ;
339 -> 340 ;
341 [label="mse = 0.0\nsamples = 1\nvalue = 830000.0"] ;
340 -> 341 ;
342 [label="X[3] <= -0.088\nmse = 81000000.0\nsamples = 2\nvalue = 861000.0"] ;
340 -> 342 ;
343 [label="mse = 0.0\nsamples = 1\nvalue = 852000.0"] ;
342 -> 343 ;
344 [label="mse = 0.0\nsamples = 1\nvalue = 870000.0"] ;
342 -> 344 ;
345 [label="mse = 0.0\nsamples = 1\nvalue = 921000.0"] ;
339 -> 345 ;
346 [label="X[3] <= -0.092\nmse = 7879687500.0\nsamples = 2\nvalue = 956250.0"] ;
336 -> 346 ;
347 [label="mse = 0.0\nsamples = 1\nvalue = 905000.0"] ;
346 -> 347 ;
348 [label="mse = 0.0\nsamples = 1\nvalue = 1110000.0"] ;
346 -> 348 ;
349 [label="mse = 0.0\nsamples = 1\nvalue = 1010000.0"] ;
335 -> 349 ;
350 [label="X[0] <= -0.991\nmse = 1638884814.05\nsamples = 11\nvalue = 759113.636"] ;
334 -> 350 ;
351 [label="X[3] <= -0.089\nmse = 279621093.75\nsamples = 3\nvalue = 793687.5"] ;
350 -> 351 ;
352 [label="X[5] <= -0.621\nmse = 70560000.0\nsamples = 2\nvalue = 781800.0"] ;
351 -> 352 ;
353 [label="mse = 0.0\nsamples = 1\nvalue = 786000.0"] ;
352 -> 353 ;
354 [label="mse = 0.0\nsamples = 1\nvalue = 765000.0"] ;
352 -> 354 ;
355 [label="mse = 0.0\nsamples = 1\nvalue = 813500.0"] ;
351 -> 355 ;
356 [label="X[1] <= -0.46\nmse = 1342229591.837\nsamples = 8\nvalue = 739357.143"] ;
350 -> 356 ;
357 [label="X[3] <= -0.089\nmse = 707928994.083\nsamples = 7\nvalue = 746615.385"] ;
356 -> 357 ;
358 [label="X[3] <= -0.093\nmse = 244890000.0\nsamples = 6\nvalue = 759100.0"] ;
357 -> 358 ;
359 [label="X[5] <= -0.622\nmse = 225000000.0\nsamples = 3\nvalue = 745000.0"] ;
358 -> 359 ;
360 [label="mse = 0.0\nsamples = 1\nvalue = 760000.0"] ;
359 -> 360 ;
361 [label="mse = 0.0\nsamples = 2\nvalue = 730000.0"] ;
359 -> 361 ;
362 [label="X[5] <= -0.37\nmse = 37250000.0\nsamples = 3\nvalue = 768500.0"] ;
358 -> 362 ;
363 [label="mse = 0.0\nsamples = 1\nvalue = 755000.0"] ;
362 -> 363 ;
364 [label="X[3] <= -0.091\nmse = 960000.0\nsamples = 2\nvalue = 771200.0"] ;
362 -> 364 ;
365 [label="mse = 0.0\nsamples = 1\nvalue = 772000.0"] ;
364 -> 365 ;
366 [label="mse = 0.0\nsamples = 1\nvalue = 770000.0"] ;
364 -> 366 ;
367 [label="mse = 0.0\nsamples = 1\nvalue = 705000.0"] ;
357 -> 367 ;
368 [label="mse = 0.0\nsamples = 1\nvalue = 645000.0"] ;
356 -> 368 ;
369 [label="X[2] <= -0.549\nmse = 26110888888.889\nsamples = 7\nvalue = 1010500.0"] ;
333 -> 369 ;
370 [label="X[1] <= -0.46\nmse = 18803704081.633\nsamples = 6\nvalue = 1067785.714"] ;
369 -> 370 ;
371 [label="X[5] <= -0.62\nmse = 20395671875.0\nsamples = 4\nvalue = 998625.0"] ;
370 -> 371 ;
372 [label="X[5] <= -0.673\nmse = 2500000000.0\nsamples = 2\nvalue = 900000.0"] ;
371 -> 372 ;
373 [label="mse = 0.0\nsamples = 1\nvalue = 950000.0"] ;
372 -> 373 ;
374 [label="mse = 0.0\nsamples = 1\nvalue = 850000.0"] ;
372 -> 374 ;
375 [label="X[5] <= -0.614\nmse = 18837562500.0\nsamples = 2\nvalue = 1097250.0"] ;
371 -> 375 ;
376 [label="mse = 0.0\nsamples = 1\nvalue = 1234500.0"] ;
375 -> 376 ;
377 [label="mse = 0.0\nsamples = 1\nvalue = 960000.0"] ;
375 -> 377 ;
378 [label="X[3] <= -0.086\nmse = 1800000000.0\nsamples = 2\nvalue = 1160000.0"] ;
370 -> 378 ;
379 [label="mse = 0.0\nsamples = 1\nvalue = 1100000.0"] ;
378 -> 379 ;
380 [label="mse = 0.0\nsamples = 1\nvalue = 1190000.0"] ;
378 -> 380 ;
381 [label="mse = 0.0\nsamples = 1\nvalue = 810000.0"] ;
369 -> 381 ;
382 [label="X[3] <= -0.092\nmse = 11567532544.379\nsamples = 15\nvalue = 1035076.923"] ;
332 -> 382 ;
383 [label="X[5] <= -0.233\nmse = 3142899408.284\nsamples = 6\nvalue = 973846.154"] ;
382 -> 383 ;
384 [label="mse = 0.0\nsamples = 1\nvalue = 890000.0"] ;
383 -> 384 ;
385 [label="X[5] <= -0.026\nmse = 2203719008.265\nsamples = 5\nvalue = 989090.909"] ;
383 -> 385 ;
386 [label="X[1] <= -0.46\nmse = 772839506.173\nsamples = 4\nvalue = 1007777.778"] ;
385 -> 386 ;
387 [label="X[3] <= -0.096\nmse = 18750000.0\nsamples = 3\nvalue = 1017500.0"] ;
386 -> 387 ;
388 [label="mse = 0.0\nsamples = 1\nvalue = 1025000.0"] ;
387 -> 388 ;
389 [label="mse = 0.0\nsamples = 2\nvalue = 1015000.0"] ;
387 -> 389 ;
390 [label="mse = 0.0\nsamples = 1\nvalue = 930000.0"] ;
386 -> 390 ;
391 [label="mse = 0.0\nsamples = 1\nvalue = 905000.0"] ;
385 -> 391 ;
392 [label="X[5] <= 0.063\nmse = 12493751479.29\nsamples = 9\nvalue = 1096307.692"] ;
382 -> 392 ;
393 [label="X[0] <= -1.0\nmse = 8173666666.667\nsamples = 8\nvalue = 1076000.0"] ;
392 -> 393 ;
394 [label="mse = 0.0\nsamples = 1\nvalue = 1265000.0"] ;
393 -> 394 ;
395 [label="X[1] <= -0.46\nmse = 5374148760.33\nsamples = 7\nvalue = 1058818.182"] ;
393 -> 395 ;
396 [label="X[0] <= -0.897\nmse = 4647484375.0\nsamples = 5\nvalue = 1084625.0"] ;
395 -> 396 ;
397 [label="X[5] <= -0.211\nmse = 1122250000.0\nsamples = 2\nvalue = 990500.0"] ;
396 -> 397 ;
398 [label="mse = 0.0\nsamples = 1\nvalue = 1024000.0"] ;
397 -> 398 ;
399 [label="mse = 0.0\nsamples = 1\nvalue = 957000.0"] ;
397 -> 399 ;
400 [label="X[3] <= -0.088\nmse = 1885000000.0\nsamples = 3\nvalue = 1116000.0"] ;
396 -> 400 ;
401 [label="X[3] <= -0.091\nmse = 96000000.0\nsamples = 2\nvalue = 1097000.0"] ;
400 -> 401 ;
402 [label="mse = 0.0\nsamples = 1\nvalue = 1105000.0"] ;
401 -> 402 ;
403 [label="mse = 0.0\nsamples = 1\nvalue = 1085000.0"] ;
401 -> 403 ;
404 [label="mse = 0.0\nsamples = 1\nvalue = 1211000.0"] ;
400 -> 404 ;
405 [label="X[2] <= -0.467\nmse = 800000000.0\nsamples = 2\nvalue = 990000.0"] ;
395 -> 405 ;
406 [label="mse = 0.0\nsamples = 1\nvalue = 950000.0"] ;
405 -> 406 ;
407 [label="mse = 0.0\nsamples = 1\nvalue = 1010000.0"] ;
405 -> 407 ;
408 [label="mse = 0.0\nsamples = 1\nvalue = 1340000.0"] ;
392 -> 408 ;
409 [label="X[5] <= -1.093\nmse = 18260206928.105\nsamples = 30\nvalue = 764966.667"] ;
331 -> 409 ;
410 [label="X[0] <= -0.36\nmse = 4107596388.889\nsamples = 5\nvalue = 674483.333"] ;
409 -> 410 ;
411 [label="X[5] <= -1.144\nmse = 1286210909.091\nsamples = 4\nvalue = 690800.0"] ;
410 -> 411 ;
412 [label="X[5] <= -1.206\nmse = 65742222.222\nsamples = 2\nvalue = 671466.667"] ;
411 -> 412 ;
413 [label="mse = 0.0\nsamples = 1\nvalue = 660000.0"] ;
412 -> 413 ;
414 [label="mse = 0.0\nsamples = 1\nvalue = 677200.0"] ;
412 -> 414 ;
415 [label="X[3] <= -0.087\nmse = 1764000000.0\nsamples = 2\nvalue = 714000.0"] ;
411 -> 415 ;
416 [label="mse = 0.0\nsamples = 1\nvalue = 735000.0"] ;
415 -> 416 ;
417 [label="mse = 0.0\nsamples = 1\nvalue = 630000.0"] ;
415 -> 417 ;
418 [label="mse = 0.0\nsamples = 1\nvalue = 495000.0"] ;
410 -> 418 ;
419 [label="X[5] <= -1.045\nmse = 19320584812.623\nsamples = 25\nvalue = 792807.692"] ;
409 -> 419 ;
420 [label="X[2] <= -1.013\nmse = 36300000000.0\nsamples = 2\nvalue = 1000000.0"] ;
419 -> 420 ;
421 [label="mse = 0.0\nsamples = 1\nvalue = 1330000.0"] ;
420 -> 421 ;
422 [label="mse = 0.0\nsamples = 1\nvalue = 890000.0"] ;
420 -> 422 ;
423 [label="X[5] <= 0.248\nmse = 11913247755.102\nsamples = 23\nvalue = 769128.571"] ;
419 -> 423 ;
424 [label="X[3] <= -0.087\nmse = 9098088154.27\nsamples = 21\nvalue = 783318.182"] ;
423 -> 424 ;
425 [label="X[5] <= -1.017\nmse = 5529446400.0\nsamples = 14\nvalue = 754440.0"] ;
424 -> 425 ;
426 [label="X[3] <= -0.093\nmse = 26888888.889\nsamples = 2\nvalue = 657333.333"] ;
425 -> 426 ;
427 [label="mse = 0.0\nsamples = 1\nvalue = 661000.0"] ;
426 -> 427 ;
428 [label="mse = 0.0\nsamples = 1\nvalue = 650000.0"] ;
426 -> 428 ;
429 [label="X[3] <= -0.089\nmse = 4818580578.512\nsamples = 12\nvalue = 767681.818"] ;
425 -> 429 ;
430 [label="X[3] <= -0.091\nmse = 4165711911.357\nsamples = 9\nvalue = 780842.105"] ;
429 -> 430 ;
431 [label="X[0] <= -0.539\nmse = 3261543209.877\nsamples = 8\nvalue = 773111.111"] ;
430 -> 431 ;
432 [label="X[3] <= -0.094\nmse = 4324138888.889\nsamples = 3\nvalue = 823833.333"] ;
431 -> 432 ;
433 [label="X[5] <= -0.846\nmse = 61440000.0\nsamples = 2\nvalue = 794600.0"] ;
432 -> 433 ;
434 [label="mse = 0.0\nsamples = 1\nvalue = 785000.0"] ;
433 -> 434 ;
435 [label="mse = 0.0\nsamples = 1\nvalue = 801000.0"] ;
433 -> 435 ;
436 [label="mse = 0.0\nsamples = 1\nvalue = 970000.0"] ;
432 -> 436 ;
437 [label="X[5] <= -0.7\nmse = 800687500.0\nsamples = 5\nvalue = 747750.0"] ;
431 -> 437 ;
438 [label="X[5] <= -1.012\nmse = 10775510.204\nsamples = 3\nvalue = 767285.714"] ;
437 -> 438 ;
439 [label="X[5] <= -1.014\nmse = 2250000.0\nsamples = 2\nvalue = 768500.0"] ;
438 -> 439 ;
440 [label="mse = 0.0\nsamples = 1\nvalue = 767000.0"] ;
439 -> 440 ;
441 [label="mse = 0.0\nsamples = 1\nvalue = 770000.0"] ;
439 -> 441 ;
442 [label="mse = 0.0\nsamples = 1\nvalue = 760000.0"] ;
438 -> 442 ;
443 [label="X[2] <= -0.445\nmse = 624240000.0\nsamples = 2\nvalue = 720400.0"] ;
437 -> 443 ;
444 [label="mse = 0.0\nsamples = 1\nvalue = 700000.0"] ;
443 -> 444 ;
445 [label="mse = 0.0\nsamples = 1\nvalue = 751000.0"] ;
443 -> 445 ;
446 [label="mse = 0.0\nsamples = 1\nvalue = 920000.0"] ;
430 -> 446 ;
447 [label="X[3] <= -0.088\nmse = 909555555.556\nsamples = 3\nvalue = 684333.333"] ;
429 -> 447 ;
448 [label="X[3] <= -0.089\nmse = 20250000.0\nsamples = 2\nvalue = 705500.0"] ;
447 -> 448 ;
449 [label="mse = 0.0\nsamples = 1\nvalue = 710000.0"] ;
448 -> 449 ;
450 [label="mse = 0.0\nsamples = 1\nvalue = 701000.0"] ;
448 -> 450 ;
451 [label="mse = 0.0\nsamples = 1\nvalue = 642000.0"] ;
447 -> 451 ;
452 [label="X[5] <= -0.972\nmse = 9499964843.75\nsamples = 7\nvalue = 873562.5"] ;
424 -> 452 ;
453 [label="X[3] <= -0.087\nmse = 1820760000.0\nsamples = 4\nvalue = 806300.0"] ;
452 -> 453 ;
454 [label="mse = 0.0\nsamples = 1\nvalue = 890000.0"] ;
453 -> 454 ;
455 [label="X[2] <= -0.762\nmse = 86671875.0\nsamples = 3\nvalue = 785375.0"] ;
453 -> 455 ;
456 [label="mse = 0.0\nsamples = 2\nvalue = 780000.0"] ;
455 -> 456 ;
457 [label="mse = 0.0\nsamples = 1\nvalue = 801500.0"] ;
455 -> 457 ;
458 [label="X[0] <= -0.548\nmse = 2190888888.889\nsamples = 3\nvalue = 985666.667"] ;
452 -> 458 ;
459 [label="mse = 0.0\nsamples = 1\nvalue = 1050000.0"] ;
458 -> 459 ;
460 [label="X[3] <= -0.087\nmse = 182250000.0\nsamples = 2\nvalue = 953500.0"] ;
458 -> 460 ;
461 [label="mse = 0.0\nsamples = 1\nvalue = 967000.0"] ;
460 -> 461 ;
462 [label="mse = 0.0\nsamples = 1\nvalue = 940000.0"] ;
460 -> 462 ;
463 [label="X[1] <= -0.46\nmse = 225000000.0\nsamples = 2\nvalue = 535000.0"] ;
423 -> 463 ;
464 [label="mse = 0.0\nsamples = 1\nvalue = 520000.0"] ;
463 -> 464 ;
465 [label="mse = 0.0\nsamples = 1\nvalue = 550000.0"] ;
463 -> 465 ;
466 [label="X[5] <= -1.048\nmse = 69816075214.499\nsamples = 616\nvalue = 1085990.34"] ;
260 -> 466 ;
467 [label="X[1] <= -0.46\nmse = 27461686413.576\nsamples = 108\nvalue = 939862.952"] ;
466 -> 467 ;
468 [label="X[3] <= -0.056\nmse = 21059606070.849\nsamples = 26\nvalue = 830005.814"] ;
467 -> 468 ;
469 [label="X[5] <= -1.078\nmse = 12056128888.889\nsamples = 10\nvalue = 735933.333"] ;
468 -> 469 ;
470 [label="X[3] <= -0.061\nmse = 6361722222.222\nsamples = 5\nvalue = 663666.667"] ;
469 -> 470 ;
471 [label="X[3] <= -0.07\nmse = 1773046875.0\nsamples = 4\nvalue = 688125.0"] ;
470 -> 471 ;
472 [label="X[0] <= -0.514\nmse = 662500000.0\nsamples = 3\nvalue = 667500.0"] ;
471 -> 472 ;
473 [label="mse = 0.0\nsamples = 1\nvalue = 610000.0"] ;
472 -> 473 ;
474 [label="X[5] <= -1.115\nmse = 1500000.0\nsamples = 2\nvalue = 679000.0"] ;
472 -> 474 ;
475 [label="mse = 0.0\nsamples = 1\nvalue = 680000.0"] ;
474 -> 475 ;
476 [label="mse = 0.0\nsamples = 1\nvalue = 677500.0"] ;
474 -> 476 ;
477 [label="mse = 0.0\nsamples = 1\nvalue = 750000.0"] ;
471 -> 477 ;
478 [label="mse = 0.0\nsamples = 1\nvalue = 468000.0"] ;
470 -> 478 ;
479 [label="X[3] <= -0.067\nmse = 1013472222.222\nsamples = 5\nvalue = 844333.333"] ;
469 -> 479 ;
480 [label="X[5] <= -1.054\nmse = 181260000.0\nsamples = 4\nvalue = 831200.0"] ;
479 -> 480 ;
481 [label="X[0] <= -0.616\nmse = 34375000.0\nsamples = 3\nvalue = 825000.0"] ;
480 -> 481 ;
482 [label="mse = 0.0\nsamples = 1\nvalue = 835000.0"] ;
481 -> 482 ;
483 [label="X[0] <= -0.565\nmse = 1388888.889\nsamples = 2\nvalue = 821666.667"] ;
481 -> 483 ;
484 [label="mse = 0.0\nsamples = 1\nvalue = 822500.0"] ;
483 -> 484 ;
485 [label="mse = 0.0\nsamples = 1\nvalue = 820000.0"] ;
483 -> 485 ;
486 [label="mse = 0.0\nsamples = 1\nvalue = 856000.0"] ;
480 -> 486 ;
487 [label="mse = 0.0\nsamples = 1\nvalue = 910000.0"] ;
479 -> 487 ;
488 [label="X[0] <= -0.232\nmse = 18602269371.811\nsamples = 16\nvalue = 880401.786"] ;
468 -> 488 ;
489 [label="X[5] <= -1.065\nmse = 10138731138.546\nsamples = 15\nvalue = 898481.481"] ;
488 -> 489 ;
490 [label="X[5] <= -1.151\nmse = 9244857954.545\nsamples = 13\nvalue = 921250.0"] ;
489 -> 490 ;
491 [label="X[2] <= -1.002\nmse = 12915384297.521\nsamples = 7\nvalue = 893045.455"] ;
490 -> 491 ;
492 [label="X[3] <= -0.024\nmse = 13053030612.245\nsamples = 5\nvalue = 943071.429"] ;
491 -> 492 ;
493 [label="X[5] <= -1.162\nmse = 20093062500.0\nsamples = 2\nvalue = 1054250.0"] ;
492 -> 493 ;
494 [label="mse = 0.0\nsamples = 1\nvalue = 1196000.0"] ;
493 -> 494 ;
495 [label="mse = 0.0\nsamples = 1\nvalue = 912500.0"] ;
493 -> 495 ;
496 [label="X[2] <= -1.018\nmse = 3315040000.0\nsamples = 3\nvalue = 898600.0"] ;
492 -> 496 ;
497 [label="mse = 0.0\nsamples = 1\nvalue = 1001000.0"] ;
496 -> 497 ;
498 [label="X[3] <= -0.015\nmse = 867000000.0\nsamples = 2\nvalue = 873000.0"] ;
496 -> 498 ;
499 [label="mse = 0.0\nsamples = 1\nvalue = 890000.0"] ;
498 -> 499 ;
500 [label="mse = 0.0\nsamples = 1\nvalue = 822000.0"] ;
498 -> 500 ;
501 [label="X[5] <= -1.178\nmse = 630750000.0\nsamples = 2\nvalue = 805500.0"] ;
491 -> 501 ;
502 [label="mse = 0.0\nsamples = 1\nvalue = 762000.0"] ;
501 -> 502 ;
503 [label="mse = 0.0\nsamples = 1\nvalue = 820000.0"] ;
501 -> 503 ;
504 [label="X[3] <= -0.017\nmse = 3983338842.975\nsamples = 6\nvalue = 949454.545"] ;
490 -> 504 ;
505 [label="X[5] <= -1.137\nmse = 2182024691.358\nsamples = 5\nvalue = 971555.556"] ;
504 -> 505 ;
506 [label="mse = 0.0\nsamples = 1\nvalue = 1030000.0"] ;
505 -> 506 ;
507 [label="X[3] <= -0.054\nmse = 1550693877.551\nsamples = 4\nvalue = 954857.143"] ;
505 -> 507 ;
508 [label="mse = 0.0\nsamples = 1\nvalue = 991000.0"] ;
507 -> 508 ;
509 [label="X[3] <= -0.045\nmse = 1439440000.0\nsamples = 3\nvalue = 940400.0"] ;
507 -> 509 ;
510 [label="mse = 0.0\nsamples = 1\nvalue = 865000.0"] ;
509 -> 510 ;
511 [label="X[3] <= -0.028\nmse = 22687500.0\nsamples = 2\nvalue = 959250.0"] ;
509 -> 511 ;
512 [label="mse = 0.0\nsamples = 1\nvalue = 962000.0"] ;
511 -> 512 ;
513 [label="mse = 0.0\nsamples = 1\nvalue = 951000.0"] ;
511 -> 513 ;
514 [label="mse = 0.0\nsamples = 1\nvalue = 850000.0"] ;
504 -> 514 ;
515 [label="X[5] <= -1.052\nmse = 1754460000.0\nsamples = 2\nvalue = 798300.0"] ;
489 -> 515 ;
516 [label="mse = 0.0\nsamples = 1\nvalue = 832500.0"] ;
515 -> 516 ;
517 [label="mse = 0.0\nsamples = 1\nvalue = 747000.0"] ;
515 -> 517 ;
518 [label="mse = 0.0\nsamples = 1\nvalue = 392250.0"] ;
488 -> 518 ;
519 [label="X[0] <= -0.641\nmse = 24005741027.166\nsamples = 82\nvalue = 978268.293"] ;
467 -> 519 ;
520 [label="X[3] <= -0.02\nmse = 10829285318.559\nsamples = 11\nvalue = 1149368.421"] ;
519 -> 520 ;
521 [label="X[5] <= -1.065\nmse = 5811763313.61\nsamples = 8\nvalue = 1099076.923"] ;
520 -> 521 ;
522 [label="X[0] <= -0.923\nmse = 2582975206.612\nsamples = 6\nvalue = 1073454.545"] ;
521 -> 522 ;
523 [label="mse = 0.0\nsamples = 1\nvalue = 983000.0"] ;
522 -> 523 ;
524 [label="X[3] <= -0.027\nmse = 1941250000.0\nsamples = 5\nvalue = 1082500.0"] ;
522 -> 524 ;
525 [label="X[3] <= -0.039\nmse = 1415432098.766\nsamples = 4\nvalue = 1091111.111"] ;
524 -> 525 ;
526 [label="X[2] <= -1.013\nmse = 2005555555.556\nsamples = 2\nvalue = 1053333.333"] ;
525 -> 526 ;
527 [label="mse = 0.0\nsamples = 1\nvalue = 1085000.0"] ;
526 -> 527 ;
528 [label="mse = 0.0\nsamples = 1\nvalue = 990000.0"] ;
526 -> 528 ;
529 [label="X[3] <= -0.027\nmse = 50000000.0\nsamples = 2\nvalue = 1110000.0"] ;
525 -> 529 ;
530 [label="mse = 0.0\nsamples = 1\nvalue = 1115000.0"] ;
529 -> 530 ;
531 [label="mse = 0.0\nsamples = 1\nvalue = 1100000.0"] ;
529 -> 531 ;
532 [label="mse = 0.0\nsamples = 1\nvalue = 1005000.0"] ;
524 -> 532 ;
533 [label="X[2] <= -1.002\nmse = 100000000.0\nsamples = 2\nvalue = 1240000.0"] ;
521 -> 533 ;
534 [label="mse = 0.0\nsamples = 1\nvalue = 1230000.0"] ;
533 -> 534 ;
535 [label="mse = 0.0\nsamples = 1\nvalue = 1250000.0"] ;
533 -> 535 ;
536 [label="X[5] <= -1.16\nmse = 4347222222.222\nsamples = 3\nvalue = 1258333.333"] ;
520 -> 536 ;
537 [label="mse = 4096000000.0\nsamples = 2\nvalue = 1272000.0"] ;
536 -> 537 ;
538 [label="mse = 0.0\nsamples = 1\nvalue = 1190000.0"] ;
536 -> 538 ;
539 [label="X[5] <= -1.16\nmse = 20087509522.929\nsamples = 71\nvalue = 947009.615"] ;
519 -> 539 ;
540 [label="X[0] <= -0.232\nmse = 10578395675.803\nsamples = 32\nvalue = 884467.391"] ;
539 -> 540 ;
541 [label="X[3] <= -0.043\nmse = 5577637343.75\nsamples = 27\nvalue = 859737.5"] ;
540 -> 541 ;
542 [label="X[3] <= -0.052\nmse = 1876000000.0\nsamples = 7\nvalue = 805000.0"] ;
541 -> 542 ;
543 [label="X[5] <= -1.257\nmse = 2065250000.0\nsamples = 4\nvalue = 762500.0"] ;
542 -> 543 ;
544 [label="mse = 0.0\nsamples = 1\nvalue = 826000.0"] ;
543 -> 544 ;
545 [label="X[3] <= -0.075\nmse = 961555555.555\nsamples = 3\nvalue = 741333.333"] ;
543 -> 545 ;
546 [label="mse = 0.0\nsamples = 1\nvalue = 785000.0"] ;
545 -> 546 ;
547 [label="X[2] <= -1.007\nmse = 12250000.0\nsamples = 2\nvalue = 719500.0"] ;
545 -> 547 ;
548 [label="mse = 0.0\nsamples = 1\nvalue = 723000.0"] ;
547 -> 548 ;
549 [label="mse = 0.0\nsamples = 1\nvalue = 716000.0"] ;
547 -> 549 ;
550 [label="X[5] <= -1.196\nmse = 145918367.347\nsamples = 3\nvalue = 829285.714"] ;
542 -> 550 ;
551 [label="X[5] <= -1.222\nmse = 55555555.556\nsamples = 2\nvalue = 833333.333"] ;
550 -> 551 ;
552 [label="mse = 0.0\nsamples = 1\nvalue = 850000.0"] ;
551 -> 552 ;
553 [label="mse = 0.0\nsamples = 1\nvalue = 830000.0"] ;
551 -> 553 ;
554 [label="mse = 0.0\nsamples = 1\nvalue = 805000.0"] ;
550 -> 554 ;
555 [label="X[5] <= -1.232\nmse = 5414137931.034\nsamples = 20\nvalue = 880500.0"] ;
541 -> 555 ;
556 [label="X[0] <= -0.428\nmse = 3701476080.247\nsamples = 11\nvalue = 853805.556"] ;
555 -> 556 ;
557 [label="mse = 0.0\nsamples = 1\nvalue = 725000.0"] ;
556 -> 557 ;
558 [label="X[3] <= 0.004\nmse = 2885868512.111\nsamples = 10\nvalue = 861382.353"] ;
556 -> 558 ;
559 [label="X[3] <= 0.0\nmse = 3021187500.0\nsamples = 5\nvalue = 899750.0"] ;
558 -> 559 ;
560 [label="X[5] <= -1.253\nmse = 241346938.776\nsamples = 4\nvalue = 879714.286"] ;
559 -> 560 ;
561 [label="mse = 0.0\nsamples = 1\nvalue = 901000.0"] ;
560 -> 561 ;
562 [label="X[5] <= -1.235\nmse = 84160000.0\nsamples = 3\nvalue = 871200.0"] ;
560 -> 562 ;
563 [label="X[5] <= -1.242\nmse = 88888888.889\nsamples = 2\nvalue = 866666.667"] ;
562 -> 563 ;
564 [label="mse = 0.0\nsamples = 1\nvalue = 880000.0"] ;
563 -> 564 ;
565 [label="mse = 0.0\nsamples = 1\nvalue = 860000.0"] ;
563 -> 565 ;
566 [label="mse = 0.0\nsamples = 1\nvalue = 878000.0"] ;
562 -> 566 ;
567 [label="mse = 0.0\nsamples = 1\nvalue = 1040000.0"] ;
559 -> 567 ;
568 [label="X[3] <= 0.013\nmse = 293950617.284\nsamples = 5\nvalue = 827277.778"] ;
558 -> 568 ;
569 [label="X[0] <= -0.292\nmse = 5555555.555\nsamples = 2\nvalue = 843333.333"] ;
568 -> 569 ;
570 [label="mse = 0.0\nsamples = 1\nvalue = 845000.0"] ;
569 -> 570 ;
571 [label="mse = 0.0\nsamples = 1\nvalue = 840000.0"] ;
569 -> 571 ;
572 [label="X[5] <= -1.346\nmse = 244812500.0\nsamples = 3\nvalue = 819250.0"] ;
568 -> 572 ;
573 [label="mse = 0.0\nsamples = 1\nvalue = 797000.0"] ;
572 -> 573 ;
574 [label="X[2] <= -0.969\nmse = 174960000.0\nsamples = 2\nvalue = 823700.0"] ;
572 -> 574 ;
575 [label="mse = 0.0\nsamples = 1\nvalue = 807500.0"] ;
574 -> 575 ;
576 [label="mse = 0.0\nsamples = 1\nvalue = 834500.0"] ;
574 -> 576 ;
577 [label="X[3] <= -0.03\nmse = 5142512396.694\nsamples = 9\nvalue = 924181.818"] ;
555 -> 577 ;
578 [label="X[0] <= -0.522\nmse = 2403555555.556\nsamples = 2\nvalue = 844333.333"] ;
577 -> 578 ;
579 [label="mse = 0.0\nsamples = 1\nvalue = 879000.0"] ;
578 -> 579 ;
580 [label="mse = 0.0\nsamples = 1\nvalue = 775000.0"] ;
578 -> 580 ;
581 [label="X[3] <= 0.001\nmse = 2882109375.0\nsamples = 7\nvalue = 954125.0"] ;
577 -> 581 ;
582 [label="X[3] <= -0.029\nmse = 1855138888.889\nsamples = 6\nvalue = 931833.333"] ;
581 -> 582 ;
583 [label="mse = 0.0\nsamples = 1\nvalue = 1005000.0"] ;
582 -> 583 ;
584 [label="X[5] <= -1.174\nmse = 941360000.0\nsamples = 5\nvalue = 917200.0"] ;
582 -> 584 ;
585 [label="X[2] <= -1.002\nmse = 154250000.0\nsamples = 4\nvalue = 931500.0"] ;
584 -> 585 ;
586 [label="X[5] <= -1.21\nmse = 53555555.556\nsamples = 3\nvalue = 925333.333"] ;
585 -> 586 ;
587 [label="mse = 0.0\nsamples = 1\nvalue = 915000.0"] ;
586 -> 587 ;
588 [label="X[5] <= -1.187\nmse = 250000.0\nsamples = 2\nvalue = 930500.0"] ;
586 -> 588 ;
589 [label="mse = 0.0\nsamples = 1\nvalue = 931000.0"] ;
588 -> 589 ;
590 [label="mse = 0.0\nsamples = 1\nvalue = 930000.0"] ;
588 -> 590 ;
591 [label="mse = 0.0\nsamples = 1\nvalue = 950000.0"] ;
585 -> 591 ;
592 [label="mse = 0.0\nsamples = 1\nvalue = 860000.0"] ;
584 -> 592 ;
593 [label="mse = 0.0\nsamples = 1\nvalue = 1021000.0"] ;
581 -> 593 ;
594 [label="X[3] <= 0.025\nmse = 12658888888.889\nsamples = 5\nvalue = 1049333.333"] ;
540 -> 594 ;
595 [label="X[3] <= 0.005\nmse = 1289760000.0\nsamples = 4\nvalue = 1001200.0"] ;
594 -> 595 ;
596 [label="X[3] <= -0.043\nmse = 56250000.0\nsamples = 2\nvalue = 1037500.0"] ;
595 -> 596 ;
597 [label="mse = 0.0\nsamples = 1\nvalue = 1030000.0"] ;
596 -> 597 ;
598 [label="mse = 0.0\nsamples = 1\nvalue = 1045000.0"] ;
596 -> 598 ;
599 [label="X[5] <= -1.224\nmse = 648000000.0\nsamples = 2\nvalue = 977000.0"] ;
595 -> 599 ;
600 [label="mse = 0.0\nsamples = 1\nvalue = 995000.0"] ;
599 -> 600 ;
601 [label="mse = 0.0\nsamples = 1\nvalue = 941000.0"] ;
599 -> 601 ;
602 [label="mse = 0.0\nsamples = 1\nvalue = 1290000.0"] ;
594 -> 602 ;
603 [label="X[2] <= -0.985\nmse = 22066569337.099\nsamples = 39\nvalue = 996612.069"] ;
539 -> 603 ;
604 [label="X[5] <= -1.064\nmse = 16817048502.604\nsamples = 33\nvalue = 969093.75"] ;
603 -> 604 ;
605 [label="X[2] <= -1.029\nmse = 12300172218.917\nsamples = 28\nvalue = 947756.098"] ;
604 -> 605 ;
606 [label="X[3] <= -0.054\nmse = 1512500000.0\nsamples = 2\nvalue = 795000.0"] ;
605 -> 606 ;
607 [label="mse = 0.0\nsamples = 1\nvalue = 850000.0"] ;
606 -> 607 ;
608 [label="mse = 0.0\nsamples = 1\nvalue = 767500.0"] ;
606 -> 608 ;
609 [label="X[5] <= -1.113\nmse = 11164202908.587\nsamples = 26\nvalue = 959815.789"] ;
605 -> 609 ;
610 [label="X[3] <= -0.039\nmse = 5122800000.0\nsamples = 10\nvalue = 906000.0"] ;
609 -> 610 ;
611 [label="X[5] <= -1.116\nmse = 5447222222.222\nsamples = 5\nvalue = 846666.667"] ;
610 -> 611 ;
612 [label="X[5] <= -1.145\nmse = 2537500000.0\nsamples = 4\nvalue = 890000.0"] ;
611 -> 612 ;
613 [label="mse = 0.0\nsamples = 1\nvalue = 930000.0"] ;
612 -> 613 ;
614 [label="X[3] <= -0.059\nmse = 2672222222.222\nsamples = 3\nvalue = 876666.667"] ;
612 -> 614 ;
615 [label="X[5] <= -1.125\nmse = 156250000.0\nsamples = 2\nvalue = 912500.0"] ;
614 -> 615 ;
616 [label="mse = 0.0\nsamples = 1\nvalue = 900000.0"] ;
615 -> 616 ;
617 [label="mse = 0.0\nsamples = 1\nvalue = 925000.0"] ;
615 -> 617 ;
618 [label="mse = 0.0\nsamples = 1\nvalue = 805000.0"] ;
614 -> 618 ;
619 [label="mse = 0.0\nsamples = 1\nvalue = 760000.0"] ;
611 -> 619 ;
620 [label="X[5] <= -1.152\nmse = 994913580.247\nsamples = 5\nvalue = 945555.556"] ;
610 -> 620 ;
621 [label="mse = 0.0\nsamples = 1\nvalue = 892000.0"] ;
620 -> 621 ;
622 [label="X[0] <= -0.428\nmse = 715937500.0\nsamples = 4\nvalue = 952250.0"] ;
620 -> 622 ;
623 [label="X[5] <= -1.136\nmse = 216750000.0\nsamples = 2\nvalue = 974500.0"] ;
622 -> 623 ;
624 [label="mse = 0.0\nsamples = 1\nvalue = 966000.0"] ;
623 -> 624 ;
625 [label="mse = 0.0\nsamples = 1\nvalue = 1000000.0"] ;
623 -> 625 ;
626 [label="X[3] <= -0.024\nmse = 225000000.0\nsamples = 2\nvalue = 930000.0"] ;
622 -> 626 ;
627 [label="mse = 0.0\nsamples = 1\nvalue = 915000.0"] ;
626 -> 627 ;
628 [label="mse = 0.0\nsamples = 1\nvalue = 945000.0"] ;
626 -> 628 ;
629 [label="X[5] <= -1.09\nmse = 11983644612.476\nsamples = 16\nvalue = 994913.043"] ;
609 -> 629 ;
630 [label="X[5] <= -1.094\nmse = 11546222222.222\nsamples = 10\nvalue = 1032333.333"] ;
629 -> 630 ;
631 [label="X[3] <= -0.065\nmse = 6983854166.667\nsamples = 8\nvalue = 993750.0"] ;
630 -> 631 ;
632 [label="mse = 0.0\nsamples = 1\nvalue = 1155000.0"] ;
631 -> 632 ;
633 [label="X[5] <= -1.104\nmse = 2140250000.0\nsamples = 7\nvalue = 961500.0"] ;
631 -> 633 ;
634 [label="X[3] <= -0.04\nmse = 1955555555.556\nsamples = 5\nvalue = 986666.667"] ;
633 -> 634 ;
635 [label="X[5] <= -1.112\nmse = 266666666.667\nsamples = 3\nvalue = 1020000.0"] ;
634 -> 635 ;
636 [label="mse = 0.0\nsamples = 1\nvalue = 1000000.0"] ;
635 -> 636 ;
637 [label="X[5] <= -1.108\nmse = 100000000.0\nsamples = 2\nvalue = 1030000.0"] ;
635 -> 637 ;
638 [label="mse = 0.0\nsamples = 1\nvalue = 1020000.0"] ;
637 -> 638 ;
639 [label="mse = 0.0\nsamples = 1\nvalue = 1040000.0"] ;
637 -> 639 ;
640 [label="X[5] <= -1.107\nmse = 1422222222.222\nsamples = 2\nvalue = 953333.333"] ;
634 -> 640 ;
641 [label="mse = 0.0\nsamples = 1\nvalue = 980000.0"] ;
640 -> 641 ;
642 [label="mse = 0.0\nsamples = 1\nvalue = 900000.0"] ;
640 -> 642 ;
643 [label="X[0] <= -0.309\nmse = 42187500.0\nsamples = 2\nvalue = 923750.0"] ;
633 -> 643 ;
644 [label="mse = 0.0\nsamples = 1\nvalue = 935000.0"] ;
643 -> 644 ;
645 [label="mse = 0.0\nsamples = 1\nvalue = 920000.0"] ;
643 -> 645 ;
646 [label="X[5] <= -1.092\nmse = 22222222.222\nsamples = 2\nvalue = 1186666.667"] ;
630 -> 646 ;
647 [label="mse = 0.0\nsamples = 1\nvalue = 1190000.0"] ;
646 -> 647 ;
648 [label="mse = 0.0\nsamples = 1\nvalue = 1180000.0"] ;
646 -> 648 ;
649 [label="X[5] <= -1.088\nmse = 5255437500.0\nsamples = 6\nvalue = 924750.0"] ;
629 -> 649 ;
650 [label="mse = 0.0\nsamples = 1\nvalue = 817000.0"] ;
649 -> 650 ;
651 [label="X[3] <= -0.059\nmse = 1847222222.222\nsamples = 5\nvalue = 960666.667"] ;
649 -> 651 ;
652 [label="X[2] <= -1.018\nmse = 474500000.0\nsamples = 4\nvalue = 933000.0"] ;
651 -> 652 ;
653 [label="mse = 0.0\nsamples = 1\nvalue = 900000.0"] ;
652 -> 653 ;
654 [label="X[5] <= -1.071\nmse = 148666666.667\nsamples = 3\nvalue = 944000.0"] ;
652 -> 654 ;
655 [label="X[0] <= -0.411\nmse = 6250000.0\nsamples = 2\nvalue = 952500.0"] ;
654 -> 655 ;
656 [label="mse = 0.0\nsamples = 1\nvalue = 955000.0"] ;
655 -> 656 ;
657 [label="mse = 0.0\nsamples = 1\nvalue = 950000.0"] ;
655 -> 657 ;
658 [label="mse = 0.0\nsamples = 1\nvalue = 927000.0"] ;
654 -> 658 ;
659 [label="mse = 0.0\nsamples = 1\nvalue = 1016000.0"] ;
651 -> 659 ;
660 [label="X[3] <= -0.023\nmse = 24986887755.102\nsamples = 5\nvalue = 1094071.429"] ;
604 -> 660 ;
661 [label="X[0] <= -0.582\nmse = 6397160000.0\nsamples = 4\nvalue = 1003700.0"] ;
660 -> 661 ;
662 [label="mse = 0.0\nsamples = 1\nvalue = 860500.0"] ;
661 -> 662 ;
663 [label="X[5] <= -1.059\nmse = 1588250000.0\nsamples = 3\nvalue = 1039500.0"] ;
661 -> 663 ;
664 [label="mse = 0.0\nsamples = 1\nvalue = 1100000.0"] ;
663 -> 664 ;
665 [label="X[0] <= -0.411\nmse = 490888888.889\nsamples = 2\nvalue = 1019333.333"] ;
663 -> 665 ;
666 [label="mse = 0.0\nsamples = 1\nvalue = 1035000.0"] ;
665 -> 666 ;
667 [label="mse = 0.0\nsamples = 1\nvalue = 988000.0"] ;
665 -> 667 ;
668 [label="mse = 0.0\nsamples = 1\nvalue = 1320000.0"] ;
660 -> 668 ;
669 [label="X[2] <= -0.893\nmse = 26182210000.0\nsamples = 6\nvalue = 1128700.0"] ;
603 -> 669 ;
670 [label="X[3] <= -0.038\nmse = 920408163.265\nsamples = 4\nvalue = 1232857.143"] ;
669 -> 670 ;
671 [label="X[3] <= -0.053\nmse = 150000000.0\nsamples = 2\nvalue = 1215000.0"] ;
670 -> 671 ;
672 [label="mse = 0.0\nsamples = 1\nvalue = 1225000.0"] ;
671 -> 672 ;
673 [label="mse = 0.0\nsamples = 1\nvalue = 1200000.0"] ;
671 -> 673 ;
674 [label="X[5] <= -1.07\nmse = 56250000.0\nsamples = 2\nvalue = 1277500.0"] ;
670 -> 674 ;
675 [label="mse = 0.0\nsamples = 1\nvalue = 1285000.0"] ;
674 -> 675 ;
676 [label="mse = 0.0\nsamples = 1\nvalue = 1270000.0"] ;
674 -> 676 ;
677 [label="X[3] <= -0.025\nmse = 747555555.556\nsamples = 2\nvalue = 885666.667"] ;
669 -> 677 ;
678 [label="mse = 0.0\nsamples = 1\nvalue = 847000.0"] ;
677 -> 678 ;
679 [label="mse = 0.0\nsamples = 1\nvalue = 905000.0"] ;
677 -> 679 ;
680 [label="X[3] <= -0.043\nmse = 73153195902.803\nsamples = 508\nvalue = 1115110.564"] ;
466 -> 680 ;
681 [label="X[0] <= -0.727\nmse = 44245794277.215\nsamples = 244\nvalue = 1048597.772"] ;
680 -> 681 ;
682 [label="X[5] <= -0.207\nmse = 39338413303.506\nsamples = 89\nvalue = 1115547.297"] ;
681 -> 682 ;
683 [label="X[3] <= -0.052\nmse = 32394875903.926\nsamples = 53\nvalue = 1051397.727"] ;
682 -> 683 ;
684 [label="X[1] <= -0.46\nmse = 23136147085.068\nsamples = 50\nvalue = 1029426.829"] ;
683 -> 684 ;
685 [label="X[5] <= -0.47\nmse = 14692139886.578\nsamples = 16\nvalue = 954652.174"] ;
684 -> 685 ;
686 [label="X[3] <= -0.08\nmse = 11812687500.0\nsamples = 6\nvalue = 1058250.0"] ;
685 -> 686 ;
687 [label="X[3] <= -0.083\nmse = 784000000.0\nsamples = 2\nvalue = 1183000.0"] ;
686 -> 687 ;
688 [label="mse = 0.0\nsamples = 1\nvalue = 1211000.0"] ;
687 -> 688 ;
689 [label="mse = 0.0\nsamples = 1\nvalue = 1155000.0"] ;
687 -> 689 ;
690 [label="X[3] <= -0.071\nmse = 8572222222.222\nsamples = 4\nvalue = 1016666.667"] ;
686 -> 690 ;
691 [label="mse = 0.0\nsamples = 1\nvalue = 825000.0"] ;
690 -> 691 ;
692 [label="X[0] <= -0.906\nmse = 1470000000.0\nsamples = 3\nvalue = 1055000.0"] ;
690 -> 692 ;
693 [label="X[0] <= -1.0\nmse = 200000000.0\nsamples = 2\nvalue = 1025000.0"] ;
692 -> 693 ;
694 [label="mse = 0.0\nsamples = 1\nvalue = 1005000.0"] ;
693 -> 694 ;
695 [label="mse = 0.0\nsamples = 1\nvalue = 1035000.0"] ;
693 -> 695 ;
696 [label="mse = 0.0\nsamples = 1\nvalue = 1100000.0"] ;
692 -> 696 ;
697 [label="X[5] <= -0.255\nmse = 7451040000.0\nsamples = 10\nvalue = 899400.0"] ;
685 -> 697 ;
698 [label="X[3] <= -0.082\nmse = 3816925619.835\nsamples = 8\nvalue = 861727.273"] ;
697 -> 698 ;
699 [label="mse = 0.0\nsamples = 1\nvalue = 730000.0"] ;
698 -> 699 ;
700 [label="X[3] <= -0.08\nmse = 2289890000.0\nsamples = 7\nvalue = 874900.0"] ;
698 -> 700 ;
701 [label="X[5] <= -0.322\nmse = 4556250000.0\nsamples = 2\nvalue = 832500.0"] ;
700 -> 701 ;
702 [label="mse = 0.0\nsamples = 1\nvalue = 765000.0"] ;
701 -> 702 ;
703 [label="mse = 0.0\nsamples = 1\nvalue = 900000.0"] ;
701 -> 703 ;
704 [label="X[3] <= -0.079\nmse = 1161500000.0\nsamples = 5\nvalue = 885500.0"] ;
700 -> 704 ;
705 [label="mse = 0.0\nsamples = 1\nvalue = 936000.0"] ;
704 -> 705 ;
706 [label="X[5] <= -0.282\nmse = 415222222.222\nsamples = 4\nvalue = 868666.667"] ;
704 -> 706 ;
707 [label="X[5] <= -0.343\nmse = 139440000.0\nsamples = 3\nvalue = 876400.0"] ;
706 -> 707 ;
708 [label="mse = 0.0\nsamples = 1\nvalue = 890000.0"] ;
707 -> 708 ;
709 [label="X[3] <= -0.074\nmse = 26888888.889\nsamples = 2\nvalue = 867333.333"] ;
707 -> 709 ;
710 [label="mse = 0.0\nsamples = 1\nvalue = 871000.0"] ;
709 -> 710 ;
711 [label="mse = 0.0\nsamples = 1\nvalue = 860000.0"] ;
709 -> 711 ;
712 [label="mse = 0.0\nsamples = 1\nvalue = 830000.0"] ;
706 -> 712 ;
713 [label="X[3] <= -0.065\nmse = 2809000000.0\nsamples = 2\nvalue = 1003000.0"] ;
697 -> 713 ;
714 [label="mse = 0.0\nsamples = 1\nvalue = 950000.0"] ;
713 -> 714 ;
715 [label="mse = 0.0\nsamples = 1\nvalue = 1056000.0"] ;
713 -> 715 ;
716 [label="X[5] <= -0.27\nmse = 23398549267.452\nsamples = 34\nvalue = 1058576.271"] ;
684 -> 716 ;
717 [label="X[5] <= -0.371\nmse = 22105256510.417\nsamples = 27\nvalue = 1087312.5"] ;
716 -> 717 ;
718 [label="X[0] <= -0.983\nmse = 19777962448.98\nsamples = 20\nvalue = 1044457.143"] ;
717 -> 718 ;
719 [label="X[3] <= -0.064\nmse = 21230094674.556\nsamples = 9\nvalue = 1121538.462"] ;
718 -> 719 ;
720 [label="X[0] <= -1.0\nmse = 11097450000.0\nsamples = 7\nvalue = 1066500.0"] ;
719 -> 720 ;
721 [label="X[3] <= -0.072\nmse = 5248987654.321\nsamples = 6\nvalue = 1039888.889"] ;
720 -> 721 ;
722 [label="X[3] <= -0.073\nmse = 756250000.0\nsamples = 4\nvalue = 996500.0"] ;
721 -> 722 ;
723 [label="X[3] <= -0.08\nmse = 189187500.0\nsamples = 3\nvalue = 1014250.0"] ;
722 -> 723 ;
724 [label="mse = 0.0\nsamples = 1\nvalue = 1037000.0"] ;
723 -> 724 ;
725 [label="X[5] <= -0.669\nmse = 22222222.222\nsamples = 2\nvalue = 1006666.667"] ;
723 -> 725 ;
726 [label="mse = 0.0\nsamples = 1\nvalue = 1000000.0"] ;
725 -> 726 ;
727 [label="mse = 0.0\nsamples = 1\nvalue = 1010000.0"] ;
725 -> 727 ;
728 [label="mse = 0.0\nsamples = 1\nvalue = 961000.0"] ;
722 -> 728 ;
729 [label="X[5] <= -0.628\nmse = 2938888888.889\nsamples = 2\nvalue = 1126666.667"] ;
721 -> 729 ;
730 [label="mse = 0.0\nsamples = 1\nvalue = 1050000.0"] ;
729 -> 730 ;
731 [label="mse = 0.0\nsamples = 1\nvalue = 1165000.0"] ;
729 -> 731 ;
732 [label="mse = 0.0\nsamples = 1\nvalue = 1306000.0"] ;
720 -> 732 ;
733 [label="X[3] <= -0.06\nmse = 11250000000.0\nsamples = 2\nvalue = 1305000.0"] ;
719 -> 733 ;
734 [label="mse = 0.0\nsamples = 1\nvalue = 1455000.0"] ;
733 -> 734 ;
735 [label="mse = 0.0\nsamples = 1\nvalue = 1230000.0"] ;
733 -> 735 ;
736 [label="X[2] <= -0.549\nmse = 13334355371.901\nsamples = 11\nvalue = 998909.091"] ;
718 -> 736 ;
737 [label="X[5] <= -0.459\nmse = 10704061224.49\nsamples = 6\nvalue = 956714.286"] ;
736 -> 737 ;
738 [label="X[2] <= -0.925\nmse = 11246440000.0\nsamples = 5\nvalue = 989400.0"] ;
737 -> 738 ;
739 [label="mse = 0.0\nsamples = 1\nvalue = 900000.0"] ;
738 -> 739 ;
740 [label="X[5] <= -0.688\nmse = 11173061224.49\nsamples = 4\nvalue = 1027714.286"] ;
738 -> 740 ;
741 [label="mse = 0.0\nsamples = 1\nvalue = 1250000.0"] ;
740 -> 741 ;
742 [label="X[3] <= -0.054\nmse = 3427555555.556\nsamples = 3\nvalue = 990666.667"] ;
740 -> 742 ;
743 [label="X[5] <= -0.632\nmse = 1244160000.0\nsamples = 2\nvalue = 968800.0"] ;
742 -> 743 ;
744 [label="mse = 0.0\nsamples = 1\nvalue = 1012000.0"] ;
743 -> 744 ;
745 [label="mse = 0.0\nsamples = 1\nvalue = 940000.0"] ;
743 -> 745 ;
746 [label="mse = 0.0\nsamples = 1\nvalue = 1100000.0"] ;
742 -> 746 ;
747 [label="mse = 0.0\nsamples = 1\nvalue = 875000.0"] ;
737 -> 747 ;
748 [label="X[3] <= -0.067\nmse = 9369187500.0\nsamples = 5\nvalue = 1072750.0"] ;
736 -> 748 ;
749 [label="X[5] <= -0.375\nmse = 2276204081.633\nsamples = 4\nvalue = 1040285.714"] ;
748 -> 749 ;
750 [label="X[3] <= -0.08\nmse = 414187500.0\nsamples = 2\nvalue = 1001750.0"] ;
749 -> 750 ;
751 [label="mse = 0.0\nsamples = 1\nvalue = 990000.0"] ;
750 -> 751 ;
752 [label="mse = 0.0\nsamples = 1\nvalue = 1037000.0"] ;
750 -> 752 ;
753 [label="X[5] <= -0.373\nmse = 138888888.889\nsamples = 2\nvalue = 1091666.667"] ;
749 -> 753 ;
754 [label="mse = 0.0\nsamples = 1\nvalue = 1075000.0"] ;
753 -> 754 ;
755 [label="mse = 0.0\nsamples = 1\nvalue = 1100000.0"] ;
753 -> 755 ;
756 [label="mse = 0.0\nsamples = 1\nvalue = 1300000.0"] ;
748 -> 756 ;
757 [label="X[5] <= -0.34\nmse = 10113905325.444\nsamples = 7\nvalue = 1202692.308"] ;
717 -> 757 ;
758 [label="X[3] <= -0.074\nmse = 5338888888.889\nsamples = 2\nvalue = 1331666.667"] ;
757 -> 758 ;
759 [label="mse = 0.0\nsamples = 1\nvalue = 1280000.0"] ;
758 -> 759 ;
760 [label="mse = 0.0\nsamples = 1\nvalue = 1435000.0"] ;
758 -> 760 ;
761 [label="X[5] <= -0.311\nmse = 5059000000.0\nsamples = 5\nvalue = 1164000.0"] ;
757 -> 761 ;
762 [label="mse = 0.0\nsamples = 1\nvalue = 1050000.0"] ;
761 -> 762 ;
763 [label="X[5] <= -0.283\nmse = 2262500000.0\nsamples = 4\nvalue = 1192500.0"] ;
761 -> 763 ;
764 [label="X[5] <= -0.297\nmse = 347222222.222\nsamples = 3\nvalue = 1218333.333"] ;
763 -> 764 ;
765 [label="mse = 0.0\nsamples = 1\nvalue = 1260000.0"] ;
764 -> 765 ;
766 [label="mse = 0.0\nsamples = 2\nvalue = 1210000.0"] ;
764 -> 766 ;
767 [label="mse = 0.0\nsamples = 1\nvalue = 1115000.0"] ;
763 -> 767 ;
768 [label="X[3] <= -0.056\nmse = 9714876033.058\nsamples = 7\nvalue = 933181.818"] ;
716 -> 768 ;
769 [label="X[5] <= -0.225\nmse = 4226543209.876\nsamples = 5\nvalue = 896111.111"] ;
768 -> 769 ;
770 [label="X[0] <= -0.897\nmse = 2883333333.333\nsamples = 3\nvalue = 930000.0"] ;
769 -> 770 ;
771 [label="mse = 0.0\nsamples = 1\nvalue = 1050000.0"] ;
770 -> 771 ;
772 [label="X[3] <= -0.067\nmse = 4000000.0\nsamples = 2\nvalue = 906000.0"] ;
770 -> 772 ;
773 [label="mse = 0.0\nsamples = 1\nvalue = 910000.0"] ;
772 -> 773 ;
774 [label="mse = 0.0\nsamples = 1\nvalue = 905000.0"] ;
772 -> 774 ;
775 [label="X[0] <= -0.897\nmse = 22222222.222\nsamples = 2\nvalue = 828333.333"] ;
769 -> 775 ;
776 [label="mse = 0.0\nsamples = 1\nvalue = 825000.0"] ;
775 -> 776 ;
777 [label="mse = 0.0\nsamples = 1\nvalue = 835000.0"] ;
775 -> 777 ;
778 [label="X[3] <= -0.055\nmse = 400000000.0\nsamples = 2\nvalue = 1100000.0"] ;
768 -> 778 ;
779 [label="mse = 0.0\nsamples = 1\nvalue = 1080000.0"] ;
778 -> 779 ;
780 [label="mse = 0.0\nsamples = 1\nvalue = 1120000.0"] ;
778 -> 780 ;
781 [label="X[5] <= -0.321\nmse = 62172222222.222\nsamples = 3\nvalue = 1351666.667"] ;
683 -> 781 ;
782 [label="mse = 0.0\nsamples = 1\nvalue = 1000000.0"] ;
781 -> 782 ;
783 [label="X[3] <= -0.049\nmse = 506250000.0\nsamples = 2\nvalue = 1527500.0"] ;
781 -> 783 ;
784 [label="mse = 0.0\nsamples = 1\nvalue = 1550000.0"] ;
783 -> 784 ;
785 [label="mse = 0.0\nsamples = 1\nvalue = 1505000.0"] ;
783 -> 785 ;
786 [label="X[0] <= -0.804\nmse = 34634507222.222\nsamples = 36\nvalue = 1209633.333"] ;
682 -> 786 ;
787 [label="X[3] <= -0.078\nmse = 25180318877.551\nsamples = 15\nvalue = 1289142.857"] ;
786 -> 787 ;
788 [label="X[3] <= -0.084\nmse = 21716250000.0\nsamples = 5\nvalue = 1147500.0"] ;
787 -> 788 ;
789 [label="mse = 0.0\nsamples = 1\nvalue = 1360000.0"] ;
788 -> 789 ;
790 [label="X[2] <= -0.461\nmse = 3376530612.245\nsamples = 4\nvalue = 1056428.571"] ;
788 -> 790 ;
791 [label="X[5] <= -0.201\nmse = 1729687500.0\nsamples = 3\nvalue = 1098750.0"] ;
790 -> 791 ;
792 [label="mse = 0.0\nsamples = 1\nvalue = 1170000.0"] ;
791 -> 792 ;
793 [label="X[3] <= -0.083\nmse = 50000000.0\nsamples = 2\nvalue = 1075000.0"] ;
791 -> 793 ;
794 [label="mse = 0.0\nsamples = 1\nvalue = 1065000.0"] ;
793 -> 794 ;
795 [label="mse = 0.0\nsamples = 1\nvalue = 1080000.0"] ;
793 -> 795 ;
796 [label="mse = 0.0\nsamples = 1\nvalue = 1000000.0"] ;
790 -> 796 ;
797 [label="X[3] <= -0.055\nmse = 9766666666.667\nsamples = 10\nvalue = 1367833.333"] ;
787 -> 797 ;
798 [label="X[5] <= -0.182\nmse = 8064746093.75\nsamples = 9\nvalue = 1349812.5"] ;
797 -> 798 ;
799 [label="X[1] <= -0.46\nmse = 9987555555.556\nsamples = 2\nvalue = 1424333.333"] ;
798 -> 799 ;
800 [label="mse = 0.0\nsamples = 1\nvalue = 1283000.0"] ;
799 -> 800 ;
801 [label="mse = 0.0\nsamples = 1\nvalue = 1495000.0"] ;
799 -> 801 ;
802 [label="X[3] <= -0.066\nmse = 1579840000.0\nsamples = 7\nvalue = 1305100.0"] ;
798 -> 802 ;
803 [label="X[3] <= -0.068\nmse = 1006250000.0\nsamples = 4\nvalue = 1285000.0"] ;
802 -> 803 ;
804 [label="X[5] <= 0.065\nmse = 343500000.0\nsamples = 3\nvalue = 1297000.0"] ;
803 -> 804 ;
805 [label="X[3] <= -0.071\nmse = 34722222.222\nsamples = 2\nvalue = 1311666.667"] ;
804 -> 805 ;
806 [label="mse = 0.0\nsamples = 1\nvalue = 1320000.0"] ;
805 -> 806 ;
807 [label="mse = 0.0\nsamples = 1\nvalue = 1307500.0"] ;
805 -> 807 ;
808 [label="mse = 0.0\nsamples = 1\nvalue = 1275000.0"] ;
804 -> 808 ;
809 [label="mse = 0.0\nsamples = 1\nvalue = 1225000.0"] ;
803 -> 809 ;
810 [label="X[3] <= -0.061\nmse = 925187500.0\nsamples = 3\nvalue = 1335250.0"] ;
802 -> 810 ;
811 [label="mse = 0.0\nsamples = 1\nvalue = 1386000.0"] ;
810 -> 811 ;
812 [label="X[2] <= -0.461\nmse = 88888888.889\nsamples = 2\nvalue = 1318333.333"] ;
810 -> 812 ;
813 [label="mse = 0.0\nsamples = 1\nvalue = 1305000.0"] ;
812 -> 813 ;
814 [label="mse = 0.0\nsamples = 1\nvalue = 1325000.0"] ;
812 -> 814 ;
815 [label="mse = 0.0\nsamples = 1\nvalue = 1512000.0"] ;
797 -> 815 ;
816 [label="X[5] <= -0.077\nmse = 32535277343.75\nsamples = 21\nvalue = 1140062.5"] ;
786 -> 816 ;
817 [label="mse = 0.0\nsamples = 1\nvalue = 1396500.0"] ;
816 -> 817 ;
818 [label="X[5] <= 0.312\nmse = 26446816326.531\nsamples = 20\nvalue = 1103428.571"] ;
816 -> 818 ;
819 [label="X[5] <= 0.166\nmse = 16977728395.062\nsamples = 19\nvalue = 1084111.111"] ;
818 -> 819 ;
820 [label="X[3] <= -0.078\nmse = 11096439909.297\nsamples = 14\nvalue = 1056523.81"] ;
819 -> 820 ;
821 [label="mse = 0.0\nsamples = 1\nvalue = 888000.0"] ;
820 -> 821 ;
822 [label="X[5] <= 0.088\nmse = 10160247500.0\nsamples = 13\nvalue = 1064950.0"] ;
820 -> 822 ;
823 [label="X[3] <= -0.053\nmse = 14833834710.744\nsamples = 8\nvalue = 1091727.273"] ;
822 -> 823 ;
824 [label="X[3] <= -0.069\nmse = 19335250000.0\nsamples = 6\nvalue = 1151500.0"] ;
823 -> 824 ;
825 [label="X[5] <= 0.071\nmse = 1910222222.222\nsamples = 3\nvalue = 1043666.667"] ;
824 -> 825 ;
826 [label="X[3] <= -0.073\nmse = 400000000.0\nsamples = 2\nvalue = 1015000.0"] ;
825 -> 826 ;
827 [label="mse = 0.0\nsamples = 1\nvalue = 995000.0"] ;
826 -> 827 ;
828 [label="mse = 0.0\nsamples = 1\nvalue = 1035000.0"] ;
826 -> 828 ;
829 [label="mse = 0.0\nsamples = 1\nvalue = 1101000.0"] ;
825 -> 829 ;
830 [label="X[3] <= -0.059\nmse = 13504222222.222\nsamples = 3\nvalue = 1259333.333"] ;
824 -> 830 ;
831 [label="X[5] <= -0.002\nmse = 2250000.0\nsamples = 2\nvalue = 1341500.0"] ;
830 -> 831 ;
832 [label="mse = 0.0\nsamples = 1\nvalue = 1343000.0"] ;
831 -> 832 ;
833 [label="mse = 0.0\nsamples = 1\nvalue = 1340000.0"] ;
831 -> 833 ;
834 [label="mse = 0.0\nsamples = 1\nvalue = 1095000.0"] ;
830 -> 834 ;
835 [label="mse = 0.0\nsamples = 2\nvalue = 1020000.0"] ;
823 -> 835 ;
836 [label="X[3] <= -0.061\nmse = 2500617283.951\nsamples = 5\nvalue = 1032222.222"] ;
822 -> 836 ;
837 [label="X[5] <= 0.114\nmse = 6250000.0\nsamples = 2\nvalue = 977500.0"] ;
836 -> 837 ;
838 [label="mse = 0.0\nsamples = 1\nvalue = 980000.0"] ;
837 -> 838 ;
839 [label="mse = 0.0\nsamples = 1\nvalue = 975000.0"] ;
837 -> 839 ;
840 [label="X[3] <= -0.057\nmse = 184000000.0\nsamples = 3\nvalue = 1076000.0"] ;
836 -> 840 ;
841 [label="mse = 0.0\nsamples = 1\nvalue = 1050000.0"] ;
840 -> 841 ;
842 [label="X[3] <= -0.052\nmse = 18750000.0\nsamples = 2\nvalue = 1082500.0"] ;
840 -> 842 ;
843 [label="mse = 0.0\nsamples = 1\nvalue = 1090000.0"] ;
842 -> 843 ;
844 [label="mse = 0.0\nsamples = 1\nvalue = 1080000.0"] ;
842 -> 844 ;
845 [label="X[5] <= 0.219\nmse = 25575555555.555\nsamples = 5\nvalue = 1180666.667"] ;
819 -> 845 ;
846 [label="X[5] <= 0.205\nmse = 3888888888.889\nsamples = 3\nvalue = 1333333.333"] ;
845 -> 846 ;
847 [label="X[3] <= -0.054\nmse = 625000000.0\nsamples = 2\nvalue = 1375000.0"] ;
846 -> 847 ;
848 [label="mse = 0.0\nsamples = 1\nvalue = 1350000.0"] ;
847 -> 848 ;
849 [label="mse = 0.0\nsamples = 1\nvalue = 1400000.0"] ;
847 -> 849 ;
850 [label="mse = 0.0\nsamples = 1\nvalue = 1250000.0"] ;
846 -> 850 ;
851 [label="X[1] <= -0.46\nmse = 648000000.0\nsamples = 2\nvalue = 1028000.0"] ;
845 -> 851 ;
852 [label="mse = 0.0\nsamples = 1\nvalue = 1010000.0"] ;
851 -> 852 ;
853 [label="mse = 0.0\nsamples = 1\nvalue = 1064000.0"] ;
851 -> 853 ;
854 [label="mse = 0.0\nsamples = 1\nvalue = 1625000.0"] ;
818 -> 854 ;
855 [label="X[2] <= -0.374\nmse = 42993487483.978\nsamples = 155\nvalue = 1009892.578"] ;
681 -> 855 ;
856 [label="X[0] <= -0.539\nmse = 40650495193.119\nsamples = 140\nvalue = 1029701.299"] ;
855 -> 856 ;
857 [label="X[5] <= -0.094\nmse = 32125931322.989\nsamples = 83\nvalue = 985849.265"] ;
856 -> 857 ;
858 [label="X[5] <= -1.043\nmse = 27201588582.231\nsamples = 69\nvalue = 955752.174"] ;
857 -> 858 ;
859 [label="mse = 0.0\nsamples = 1\nvalue = 1455000.0"] ;
858 -> 859 ;
860 [label="X[3] <= -0.046\nmse = 25234630751.77\nsamples = 68\nvalue = 951372.807"] ;
858 -> 860 ;
861 [label="X[2] <= -0.642\nmse = 23848210455.247\nsamples = 65\nvalue = 941319.444"] ;
860 -> 861 ;
862 [label="X[3] <= -0.083\nmse = 26903016546.202\nsamples = 54\nvalue = 962648.81"] ;
861 -> 862 ;
863 [label="mse = 0.0\nsamples = 1\nvalue = 1170000.0"] ;
862 -> 863 ;
864 [label="X[2] <= -1.023\nmse = 26248057689.377\nsamples = 53\nvalue = 954969.136"] ;
862 -> 864 ;
865 [label="X[0] <= -0.616\nmse = 22437961388.889\nsamples = 20\nvalue = 900283.333"] ;
864 -> 865 ;
866 [label="X[3] <= -0.081\nmse = 5786864969.136\nsamples = 12\nvalue = 817305.556"] ;
865 -> 866 ;
867 [label="mse = 0.0\nsamples = 1\nvalue = 980000.0"] ;
866 -> 867 ;
868 [label="X[3] <= -0.068\nmse = 2787952148.438\nsamples = 11\nvalue = 796968.75"] ;
866 -> 868 ;
869 [label="X[5] <= -1.028\nmse = 1054989795.918\nsamples = 6\nvalue = 761214.286"] ;
868 -> 869 ;
870 [label="mse = 0.0\nsamples = 1\nvalue = 711000.0"] ;
869 -> 870 ;
871 [label="X[1] <= -0.46\nmse = 740534722.222\nsamples = 5\nvalue = 769583.333"] ;
869 -> 871 ;
872 [label="X[3] <= -0.07\nmse = 1072562500.0\nsamples = 2\nvalue = 790250.0"] ;
871 -> 872 ;
873 [label="mse = 0.0\nsamples = 1\nvalue = 823000.0"] ;
872 -> 873 ;
874 [label="mse = 0.0\nsamples = 1\nvalue = 757500.0"] ;
872 -> 874 ;
875 [label="X[3] <= -0.08\nmse = 254187500.0\nsamples = 3\nvalue = 759250.0"] ;
871 -> 875 ;
876 [label="mse = 0.0\nsamples = 1\nvalue = 775000.0"] ;
875 -> 876 ;
877 [label="X[5] <= -0.958\nmse = 12250000.0\nsamples = 2\nvalue = 743500.0"] ;
875 -> 877 ;
878 [label="mse = 0.0\nsamples = 1\nvalue = 747000.0"] ;
877 -> 878 ;
879 [label="mse = 0.0\nsamples = 1\nvalue = 740000.0"] ;
877 -> 879 ;
880 [label="X[5] <= -1.014\nmse = 2368172839.506\nsamples = 5\nvalue = 824777.778"] ;
868 -> 880 ;
881 [label="mse = 0.0\nsamples = 1\nvalue = 760000.0"] ;
880 -> 881 ;
882 [label="X[3] <= -0.067\nmse = 1503346938.775\nsamples = 4\nvalue = 843285.714"] ;
880 -> 882 ;
883 [label="mse = 0.0\nsamples = 1\nvalue = 800000.0"] ;
882 -> 883 ;
884 [label="X[5] <= -0.899\nmse = 171687500.0\nsamples = 3\nvalue = 875750.0"] ;
882 -> 884 ;
885 [label="X[5] <= -0.955\nmse = 64222222.222\nsamples = 2\nvalue = 869333.333"] ;
884 -> 885 ;
886 [label="mse = 0.0\nsamples = 1\nvalue = 875000.0"] ;
885 -> 886 ;
887 [label="mse = 0.0\nsamples = 1\nvalue = 858000.0"] ;
885 -> 887 ;
888 [label="mse = 0.0\nsamples = 1\nvalue = 895000.0"] ;
884 -> 888 ;
889 [label="X[3] <= -0.075\nmse = 21594687500.0\nsamples = 8\nvalue = 1024750.0"] ;
865 -> 889 ;
890 [label="X[3] <= -0.076\nmse = 1164960000.0\nsamples = 3\nvalue = 908200.0"] ;
889 -> 890 ;
891 [label="X[3] <= -0.077\nmse = 222222.222\nsamples = 2\nvalue = 880333.333"] ;
890 -> 891 ;
892 [label="mse = 0.0\nsamples = 1\nvalue = 880000.0"] ;
891 -> 892 ;
893 [label="mse = 0.0\nsamples = 1\nvalue = 881000.0"] ;
891 -> 893 ;
894 [label="mse = 0.0\nsamples = 1\nvalue = 950000.0"] ;
890 -> 894 ;
895 [label="X[3] <= -0.072\nmse = 19554000000.0\nsamples = 5\nvalue = 1108000.0"] ;
889 -> 895 ;
896 [label="X[3] <= -0.074\nmse = 56250000.0\nsamples = 2\nvalue = 1317500.0"] ;
895 -> 896 ;
897 [label="mse = 0.0\nsamples = 1\nvalue = 1325000.0"] ;
896 -> 897 ;
898 [label="mse = 0.0\nsamples = 1\nvalue = 1310000.0"] ;
896 -> 898 ;
899 [label="X[5] <= -0.995\nmse = 2774560000.0\nsamples = 3\nvalue = 1024200.0"] ;
895 -> 899 ;
900 [label="X[5] <= -1.028\nmse = 229687500.0\nsamples = 2\nvalue = 998750.0"] ;
899 -> 900 ;
901 [label="mse = 0.0\nsamples = 1\nvalue = 990000.0"] ;
900 -> 901 ;
902 [label="mse = 0.0\nsamples = 1\nvalue = 1025000.0"] ;
900 -> 902 ;
903 [label="mse = 0.0\nsamples = 1\nvalue = 1126000.0"] ;
899 -> 903 ;
904 [label="X[5] <= -0.883\nmse = 25695363514.033\nsamples = 33\nvalue = 987137.255"] ;
864 -> 904 ;
905 [label="X[3] <= -0.057\nmse = 12625147928.994\nsamples = 5\nvalue = 1065076.923"] ;
904 -> 905 ;
906 [label="X[3] <= -0.069\nmse = 8334264462.81\nsamples = 4\nvalue = 1096909.091"] ;
905 -> 906 ;
907 [label="X[3] <= -0.077\nmse = 577432098.766\nsamples = 3\nvalue = 1055111.111"] ;
906 -> 907 ;
908 [label="X[2] <= -0.909\nmse = 2204081.633\nsamples = 2\nvalue = 1042285.714"] ;
907 -> 908 ;
909 [label="mse = 0.0\nsamples = 1\nvalue = 1044000.0"] ;
908 -> 909 ;
910 [label="mse = 0.0\nsamples = 1\nvalue = 1041000.0"] ;
908 -> 910 ;
911 [label="mse = 0.0\nsamples = 1\nvalue = 1100000.0"] ;
907 -> 911 ;
912 [label="mse = 0.0\nsamples = 1\nvalue = 1285000.0"] ;
906 -> 912 ;
913 [label="mse = 0.0\nsamples = 1\nvalue = 890000.0"] ;
905 -> 913 ;
914 [label="X[3] <= -0.074\nmse = 27377657202.216\nsamples = 28\nvalue = 960473.684"] ;
904 -> 914 ;
915 [label="X[5] <= -0.725\nmse = 9187859375.0\nsamples = 6\nvalue = 817125.0"] ;
914 -> 915 ;
916 [label="X[2] <= -0.767\nmse = 1624000000.0\nsamples = 3\nvalue = 754000.0"] ;
915 -> 916 ;
917 [label="X[5] <= -0.812\nmse = 355555555.556\nsamples = 2\nvalue = 723333.333"] ;
916 -> 917 ;
918 [label="mse = 0.0\nsamples = 1\nvalue = 750000.0"] ;
917 -> 918 ;
919 [label="mse = 0.0\nsamples = 1\nvalue = 710000.0"] ;
917 -> 919 ;
920 [label="mse = 0.0\nsamples = 1\nvalue = 800000.0"] ;
916 -> 920 ;
921 [label="X[2] <= -0.767\nmse = 4084222222.222\nsamples = 3\nvalue = 922333.333"] ;
915 -> 921 ;
922 [label="X[3] <= -0.079\nmse = 6250000.0\nsamples = 2\nvalue = 967500.0"] ;
921 -> 922 ;
923 [label="mse = 0.0\nsamples = 1\nvalue = 970000.0"] ;
922 -> 923 ;
924 [label="mse = 0.0\nsamples = 1\nvalue = 965000.0"] ;
922 -> 924 ;
925 [label="mse = 0.0\nsamples = 1\nvalue = 832000.0"] ;
921 -> 925 ;
926 [label="X[3] <= -0.07\nmse = 25287326666.667\nsamples = 22\nvalue = 998700.0"] ;
914 -> 926 ;
927 [label="X[5] <= -0.687\nmse = 28756250000.0\nsamples = 3\nvalue = 1232500.0"] ;
926 -> 927 ;
928 [label="X[5] <= -0.773\nmse = 5338888888.889\nsamples = 2\nvalue = 1141666.667"] ;
927 -> 928 ;
929 [label="mse = 0.0\nsamples = 1\nvalue = 1090000.0"] ;
928 -> 929 ;
930 [label="mse = 0.0\nsamples = 1\nvalue = 1245000.0"] ;
928 -> 930 ;
931 [label="mse = 0.0\nsamples = 1\nvalue = 1505000.0"] ;
927 -> 931 ;
932 [label="X[3] <= -0.069\nmse = 15050254437.87\nsamples = 19\nvalue = 962730.769"] ;
926 -> 932 ;
933 [label="X[2] <= -0.767\nmse = 756250000.0\nsamples = 2\nvalue = 732500.0"] ;
932 -> 933 ;
934 [label="mse = 0.0\nsamples = 1\nvalue = 705000.0"] ;
933 -> 934 ;
935 [label="mse = 0.0\nsamples = 1\nvalue = 760000.0"] ;
933 -> 935 ;
936 [label="X[5] <= -0.599\nmse = 11456138888.889\nsamples = 17\nvalue = 981916.667"] ;
932 -> 936 ;
937 [label="X[3] <= -0.056\nmse = 8570889413.989\nsamples = 16\nvalue = 970043.478"] ;
936 -> 937 ;
938 [label="X[5] <= -0.834\nmse = 8393781250.0\nsamples = 11\nvalue = 1003250.0"] ;
937 -> 938 ;
939 [label="X[3] <= -0.06\nmse = 2561840000.0\nsamples = 4\nvalue = 938400.0"] ;
938 -> 939 ;
940 [label="X[5] <= -0.861\nmse = 176500000.0\nsamples = 3\nvalue = 963000.0"] ;
939 -> 940 ;
941 [label="mse = 0.0\nsamples = 1\nvalue = 940000.0"] ;
940 -> 941 ;
942 [label="X[0] <= -0.633\nmse = 222222.222\nsamples = 2\nvalue = 970666.667"] ;
940 -> 942 ;
943 [label="mse = 0.0\nsamples = 1\nvalue = 971000.0"] ;
942 -> 943 ;
944 [label="mse = 0.0\nsamples = 1\nvalue = 970000.0"] ;
942 -> 944 ;
945 [label="mse = 0.0\nsamples = 1\nvalue = 840000.0"] ;
939 -> 945 ;
946 [label="X[3] <= -0.064\nmse = 8264152892.562\nsamples = 7\nvalue = 1032727.273"] ;
938 -> 946 ;
947 [label="X[2] <= -0.767\nmse = 1031500000.0\nsamples = 3\nvalue = 959000.0"] ;
946 -> 947 ;
948 [label="X[5] <= -0.765\nmse = 126562500.0\nsamples = 2\nvalue = 943750.0"] ;
947 -> 948 ;
949 [label="mse = 0.0\nsamples = 1\nvalue = 955000.0"] ;
948 -> 949 ;
950 [label="mse = 0.0\nsamples = 1\nvalue = 932500.0"] ;
948 -> 950 ;
951 [label="mse = 0.0\nsamples = 1\nvalue = 1020000.0"] ;
947 -> 951 ;
952 [label="X[1] <= -0.46\nmse = 5986805555.555\nsamples = 4\nvalue = 1094166.667"] ;
946 -> 952 ;
953 [label="X[5] <= -0.738\nmse = 75000000.0\nsamples = 2\nvalue = 1045000.0"] ;
952 -> 953 ;
954 [label="mse = 0.0\nsamples = 1\nvalue = 1040000.0"] ;
953 -> 954 ;
955 [label="mse = 0.0\nsamples = 1\nvalue = 1060000.0"] ;
953 -> 955 ;
956 [label="X[3] <= -0.061\nmse = 3306250000.0\nsamples = 2\nvalue = 1192500.0"] ;
952 -> 956 ;
957 [label="mse = 0.0\nsamples = 1\nvalue = 1250000.0"] ;
956 -> 957 ;
958 [label="mse = 0.0\nsamples = 1\nvalue = 1135000.0"] ;
956 -> 958 ;
959 [label="X[0] <= -0.633\nmse = 694408163.265\nsamples = 5\nvalue = 894142.857"] ;
937 -> 959 ;
960 [label="X[5] <= -0.848\nmse = 225000000.0\nsamples = 2\nvalue = 925000.0"] ;
959 -> 960 ;
961 [label="mse = 0.0\nsamples = 1\nvalue = 940000.0"] ;
960 -> 961 ;
962 [label="mse = 0.0\nsamples = 1\nvalue = 910000.0"] ;
960 -> 962 ;
963 [label="X[3] <= -0.05\nmse = 348960000.0\nsamples = 3\nvalue = 881800.0"] ;
959 -> 963 ;
964 [label="X[5] <= -0.86\nmse = 100000000.0\nsamples = 2\nvalue = 890000.0"] ;
963 -> 964 ;
965 [label="mse = 0.0\nsamples = 1\nvalue = 880000.0"] ;
964 -> 965 ;
966 [label="mse = 0.0\nsamples = 1\nvalue = 900000.0"] ;
964 -> 966 ;
967 [label="mse = 0.0\nsamples = 1\nvalue = 849000.0"] ;
963 -> 967 ;
968 [label="mse = 0.0\nsamples = 1\nvalue = 1255000.0"] ;
936 -> 968 ;
969 [label="X[3] <= -0.056\nmse = 5991055555.556\nsamples = 11\nvalue = 866666.667"] ;
861 -> 969 ;
970 [label="X[3] <= -0.069\nmse = 6109339843.75\nsamples = 7\nvalue = 838687.5"] ;
969 -> 970 ;
971 [label="X[1] <= -0.46\nmse = 2049609375.0\nsamples = 4\nvalue = 903125.0"] ;
970 -> 971 ;
972 [label="mse = 0.0\nsamples = 1\nvalue = 820000.0"] ;
971 -> 972 ;
973 [label="X[5] <= -0.321\nmse = 1214285714.286\nsamples = 3\nvalue = 915000.0"] ;
971 -> 973 ;
974 [label="mse = 0.0\nsamples = 1\nvalue = 955000.0"] ;
973 -> 974 ;
975 [label="X[3] <= -0.078\nmse = 25000000.0\nsamples = 2\nvalue = 885000.0"] ;
973 -> 975 ;
976 [label="mse = 0.0\nsamples = 1\nvalue = 890000.0"] ;
975 -> 976 ;
977 [label="mse = 0.0\nsamples = 1\nvalue = 880000.0"] ;
975 -> 977 ;
978 [label="X[3] <= -0.059\nmse = 1864687500.0\nsamples = 3\nvalue = 774250.0"] ;
970 -> 978 ;
979 [label="X[3] <= -0.062\nmse = 36000000.0\nsamples = 2\nvalue = 799000.0"] ;
978 -> 979 ;
980 [label="mse = 0.0\nsamples = 1\nvalue = 793000.0"] ;
979 -> 980 ;
981 [label="mse = 0.0\nsamples = 1\nvalue = 805000.0"] ;
979 -> 981 ;
982 [label="mse = 0.0\nsamples = 1\nvalue = 700000.0"] ;
978 -> 982 ;
983 [label="X[2] <= -0.451\nmse = 1057484375.0\nsamples = 4\nvalue = 922625.0"] ;
969 -> 983 ;
984 [label="X[5] <= -0.446\nmse = 353346938.775\nsamples = 3\nvalue = 912285.714"] ;
983 -> 984 ;
985 [label="mse = 0.0\nsamples = 1\nvalue = 942000.0"] ;
984 -> 985 ;
986 [label="X[2] <= -0.538\nmse = 240000.0\nsamples = 2\nvalue = 900400.0"] ;
984 -> 986 ;
987 [label="mse = 0.0\nsamples = 1\nvalue = 901000.0"] ;
986 -> 987 ;
988 [label="mse = 0.0\nsamples = 1\nvalue = 900000.0"] ;
986 -> 988 ;
989 [label="mse = 0.0\nsamples = 1\nvalue = 995000.0"] ;
983 -> 989 ;
990 [label="X[3] <= -0.045\nmse = 15624222222.222\nsamples = 3\nvalue = 1132333.333"] ;
860 -> 990 ;
991 [label="mse = 0.0\nsamples = 1\nvalue = 1300000.0"] ;
990 -> 991 ;
992 [label="X[5] <= -0.766\nmse = 2352250000.0\nsamples = 2\nvalue = 1048500.0"] ;
990 -> 992 ;
993 [label="mse = 0.0\nsamples = 1\nvalue = 1000000.0"] ;
992 -> 993 ;
994 [label="mse = 0.0\nsamples = 1\nvalue = 1097000.0"] ;
992 -> 994 ;
995 [label="X[3] <= -0.072\nmse = 26967269841.27\nsamples = 14\nvalue = 1150666.667"] ;
857 -> 995 ;
996 [label="X[1] <= -0.46\nmse = 1216888888.889\nsamples = 2\nvalue = 922666.667"] ;
995 -> 996 ;
997 [label="mse = 0.0\nsamples = 1\nvalue = 972000.0"] ;
996 -> 997 ;
998 [label="mse = 0.0\nsamples = 1\nvalue = 898000.0"] ;
996 -> 998 ;
999 [label="X[1] <= -0.46\nmse = 21151000000.0\nsamples = 12\nvalue = 1188666.667"] ;
995 -> 999 ;
1000 [label="X[3] <= -0.052\nmse = 20987265306.123\nsamples = 5\nvalue = 1069142.857"] ;
999 -> 1000 ;
1001 [label="X[3] <= -0.054\nmse = 6018750000.0\nsamples = 3\nvalue = 1182500.0"] ;
1000 -> 1001 ;
1002 [label="X[3] <= -0.058\nmse = 5000000000.0\nsamples = 2\nvalue = 1210000.0"] ;
1001 -> 1002 ;
1003 [label="mse = 0.0\nsamples = 1\nvalue = 1110000.0"] ;
1002 -> 1003 ;
1004 [label="mse = 0.0\nsamples = 1\nvalue = 1260000.0"] ;
1002 -> 1004 ;
1005 [label="mse = 0.0\nsamples = 1\nvalue = 1100000.0"] ;
1001 -> 1005 ;
1006 [label="X[3] <= -0.048\nmse = 968000000.0\nsamples = 2\nvalue = 918000.0"] ;
1000 -> 1006 ;
1007 [label="mse = 0.0\nsamples = 1\nvalue = 874000.0"] ;
1006 -> 1007 ;
1008 [label="mse = 0.0\nsamples = 1\nvalue = 940000.0"] ;
1006 -> 1008 ;
1009 [label="X[3] <= -0.062\nmse = 6378925619.835\nsamples = 7\nvalue = 1264727.273"] ;
999 -> 1009 ;
1010 [label="X[3] <= -0.067\nmse = 3457440000.0\nsamples = 2\nvalue = 1309400.0"] ;
1009 -> 1010 ;
1011 [label="mse = 0.0\nsamples = 1\nvalue = 1280000.0"] ;
1010 -> 1011 ;
1012 [label="mse = 0.0\nsamples = 1\nvalue = 1427000.0"] ;
1010 -> 1012 ;
1013 [label="X[3] <= -0.047\nmse = 5764583333.333\nsamples = 5\nvalue = 1227500.0"] ;
1009 -> 1013 ;
1014 [label="X[3] <= -0.06\nmse = 1336000000.0\nsamples = 4\nvalue = 1197000.0"] ;
1013 -> 1014 ;
1015 [label="mse = 0.0\nsamples = 1\nvalue = 1135000.0"] ;
1014 -> 1015 ;
1016 [label="X[3] <= -0.056\nmse = 468750000.0\nsamples = 3\nvalue = 1212500.0"] ;
1014 -> 1016 ;
1017 [label="mse = 0.0\nsamples = 1\nvalue = 1250000.0"] ;
1016 -> 1017 ;
1018 [label="mse = 0.0\nsamples = 2\nvalue = 1200000.0"] ;
1016 -> 1018 ;
1019 [label="mse = 0.0\nsamples = 1\nvalue = 1380000.0"] ;
1013 -> 1019 ;
1020 [label="X[5] <= -0.728\nmse = 46160120609.418\nsamples = 57\nvalue = 1092478.947"] ;
856 -> 1020 ;
1021 [label="X[0] <= -0.232\nmse = 47531808012.487\nsamples = 38\nvalue = 1149580.645"] ;
1020 -> 1021 ;
1022 [label="X[1] <= -0.46\nmse = 40121662222.222\nsamples = 36\nvalue = 1135233.333"] ;
1021 -> 1022 ;
1023 [label="X[0] <= -0.403\nmse = 24141728395.062\nsamples = 6\nvalue = 990222.222"] ;
1022 -> 1023 ;
1024 [label="mse = 0.0\nsamples = 1\nvalue = 1195000.0"] ;
1023 -> 1024 ;
1025 [label="X[5] <= -0.998\nmse = 4762138888.889\nsamples = 5\nvalue = 887833.333"] ;
1023 -> 1025 ;
1026 [label="X[2] <= -0.985\nmse = 1521000000.0\nsamples = 2\nvalue = 961000.0"] ;
1025 -> 1026 ;
1027 [label="mse = 0.0\nsamples = 1\nvalue = 922000.0"] ;
1026 -> 1027 ;
1028 [label="mse = 0.0\nsamples = 1\nvalue = 1000000.0"] ;
1026 -> 1028 ;
1029 [label="X[5] <= -0.994\nmse = 2367687500.0\nsamples = 3\nvalue = 851250.0"] ;
1025 -> 1029 ;
1030 [label="mse = 0.0\nsamples = 1\nvalue = 769000.0"] ;
1029 -> 1030 ;
1031 [label="X[3] <= -0.057\nmse = 150222222.222\nsamples = 2\nvalue = 878666.667"] ;
1029 -> 1031 ;
1032 [label="mse = 0.0\nsamples = 1\nvalue = 896000.0"] ;
1031 -> 1032 ;
1033 [label="mse = 0.0\nsamples = 1\nvalue = 870000.0"] ;
1031 -> 1033 ;
1034 [label="X[5] <= -0.926\nmse = 38575929642.445\nsamples = 30\nvalue = 1160823.529"] ;
1022 -> 1034 ;
1035 [label="X[2] <= -0.849\nmse = 28394436507.936\nsamples = 24\nvalue = 1131666.667"] ;
1034 -> 1035 ;
1036 [label="X[3] <= -0.052\nmse = 23518456382.002\nsamples = 20\nvalue = 1173757.576"] ;
1035 -> 1036 ;
1037 [label="X[5] <= -1.008\nmse = 23377481569.56\nsamples = 18\nvalue = 1153534.483"] ;
1036 -> 1037 ;
1038 [label="X[3] <= -0.073\nmse = 19368878892.733\nsamples = 10\nvalue = 1106558.824"] ;
1037 -> 1038 ;
1039 [label="X[3] <= -0.075\nmse = 29612160000.0\nsamples = 5\nvalue = 1207300.0"] ;
1038 -> 1039 ;
1040 [label="X[5] <= -1.045\nmse = 23663671875.0\nsamples = 4\nvalue = 1155625.0"] ;
1039 -> 1040 ;
1041 [label="mse = 0.0\nsamples = 1\nvalue = 910000.0"] ;
1040 -> 1041 ;
1042 [label="X[0] <= -0.445\nmse = 4737500000.0\nsamples = 3\nvalue = 1237500.0"] ;
1040 -> 1042 ;
1043 [label="X[5] <= -1.041\nmse = 689062500.0\nsamples = 2\nvalue = 1191250.0"] ;
1042 -> 1043 ;
1044 [label="mse = 0.0\nsamples = 1\nvalue = 1165000.0"] ;
1043 -> 1044 ;
1045 [label="mse = 0.0\nsamples = 1\nvalue = 1217500.0"] ;
1043 -> 1045 ;
1046 [label="mse = 0.0\nsamples = 1\nvalue = 1330000.0"] ;
1042 -> 1046 ;
1047 [label="mse = 0.0\nsamples = 1\nvalue = 1414000.0"] ;
1039 -> 1047 ;
1048 [label="X[0] <= -0.471\nmse = 9110243055.556\nsamples = 5\nvalue = 1064583.333"] ;
1038 -> 1048 ;
1049 [label="mse = 0.0\nsamples = 1\nvalue = 950000.0"] ;
1048 -> 1049 ;
1050 [label="X[3] <= -0.061\nmse = 6311728395.062\nsamples = 4\nvalue = 1102777.778"] ;
1048 -> 1050 ;
1051 [label="mse = 0.0\nsamples = 1\nvalue = 1200000.0"] ;
1050 -> 1051 ;
1052 [label="X[3] <= -0.058\nmse = 2378472222.222\nsamples = 3\nvalue = 1054166.667"] ;
1050 -> 1052 ;
1053 [label="X[2] <= -0.985\nmse = 555555555.555\nsamples = 2\nvalue = 1008333.333"] ;
1052 -> 1053 ;
1054 [label="mse = 0.0\nsamples = 1\nvalue = 1025000.0"] ;
1053 -> 1054 ;
1055 [label="mse = 0.0\nsamples = 1\nvalue = 975000.0"] ;
1053 -> 1055 ;
1056 [label="mse = 0.0\nsamples = 1\nvalue = 1100000.0"] ;
1052 -> 1056 ;
1057 [label="X[3] <= -0.081\nmse = 21501409722.222\nsamples = 8\nvalue = 1220083.333"] ;
1037 -> 1057 ;
1058 [label="mse = 0.0\nsamples = 1\nvalue = 960000.0"] ;
1057 -> 1058 ;
1059 [label="X[5] <= -0.995\nmse = 9567290000.0\nsamples = 7\nvalue = 1272100.0"] ;
1057 -> 1059 ;
1060 [label="mse = 0.0\nsamples = 1\nvalue = 1380000.0"] ;
1059 -> 1060 ;
1061 [label="X[5] <= -0.988\nmse = 8320859375.0\nsamples = 6\nvalue = 1245125.0"] ;
1059 -> 1061 ;
1062 [label="mse = 0.0\nsamples = 1\nvalue = 1100000.0"] ;
1061 -> 1062 ;
1063 [label="X[0] <= -0.445\nmse = 6070979591.836\nsamples = 5\nvalue = 1265857.143"] ;
1061 -> 1063 ;
1064 [label="mse = 0.0\nsamples = 1\nvalue = 1425000.0"] ;
1063 -> 1064 ;
1065 [label="X[5] <= -0.97\nmse = 2158222222.222\nsamples = 4\nvalue = 1239333.333"] ;
1063 -> 1065 ;
1066 [label="X[3] <= -0.064\nmse = 900000000.0\nsamples = 2\nvalue = 1180000.0"] ;
1065 -> 1066 ;
1067 [label="mse = 0.0\nsamples = 1\nvalue = 1210000.0"] ;
1066 -> 1067 ;
1068 [label="mse = 0.0\nsamples = 1\nvalue = 1150000.0"] ;
1066 -> 1068 ;
1069 [label="X[3] <= -0.072\nmse = 147000000.0\nsamples = 2\nvalue = 1269000.0"] ;
1065 -> 1069 ;
1070 [label="mse = 0.0\nsamples = 1\nvalue = 1262000.0"] ;
1069 -> 1070 ;
1071 [label="mse = 0.0\nsamples = 1\nvalue = 1290000.0"] ;
1069 -> 1071 ;
1072 [label="X[5] <= -1.039\nmse = 78796875.0\nsamples = 2\nvalue = 1320375.0"] ;
1036 -> 1072 ;
1073 [label="mse = 0.0\nsamples = 1\nvalue = 1305000.0"] ;
1072 -> 1073 ;
1074 [label="mse = 0.0\nsamples = 1\nvalue = 1325500.0"] ;
1072 -> 1074 ;
1075 [label="X[0] <= -0.403\nmse = 15958222222.222\nsamples = 4\nvalue = 977333.333"] ;
1035 -> 1075 ;
1076 [label="mse = 0.0\nsamples = 1\nvalue = 1320000.0"] ;
1075 -> 1076 ;
1077 [label="X[3] <= -0.066\nmse = 1440750000.0\nsamples = 3\nvalue = 934500.0"] ;
1075 -> 1077 ;
1078 [label="X[5] <= -0.965\nmse = 47040000.0\nsamples = 2\nvalue = 905400.0"] ;
1077 -> 1078 ;
1079 [label="mse = 0.0\nsamples = 1\nvalue = 897000.0"] ;
1078 -> 1079 ;
1080 [label="mse = 0.0\nsamples = 1\nvalue = 911000.0"] ;
1078 -> 1080 ;
1081 [label="mse = 0.0\nsamples = 1\nvalue = 983000.0"] ;
1077 -> 1081 ;
1082 [label="X[2] <= -0.849\nmse = 63608543209.876\nsamples = 6\nvalue = 1296888.889"] ;
1034 -> 1082 ;
1083 [label="X[3] <= -0.062\nmse = 5625000000.0\nsamples = 2\nvalue = 1635000.0"] ;
1082 -> 1083 ;
1084 [label="mse = 0.0\nsamples = 1\nvalue = 1710000.0"] ;
1083 -> 1084 ;
1085 [label="mse = 0.0\nsamples = 1\nvalue = 1560000.0"] ;
1083 -> 1085 ;
1086 [label="X[3] <= -0.081\nmse = 38180489795.918\nsamples = 4\nvalue = 1200285.714"] ;
1082 -> 1086 ;
1087 [label="mse = 0.0\nsamples = 1\nvalue = 1467000.0"] ;
1086 -> 1087 ;
1088 [label="X[5] <= -0.81\nmse = 30711805555.556\nsamples = 3\nvalue = 1155833.333"] ;
1086 -> 1088 ;
1089 [label="X[5] <= -0.842\nmse = 14406000000.0\nsamples = 2\nvalue = 1217000.0"] ;
1088 -> 1089 ;
1090 [label="mse = 0.0\nsamples = 1\nvalue = 1070000.0"] ;
1089 -> 1090 ;
1091 [label="mse = 0.0\nsamples = 1\nvalue = 1315000.0"] ;
1089 -> 1091 ;
1092 [label="mse = 0.0\nsamples = 1\nvalue = 850000.0"] ;
1088 -> 1092 ;
1093 [label="X[3] <= -0.064\nmse = 78400000000.0\nsamples = 2\nvalue = 1580000.0"] ;
1021 -> 1093 ;
1094 [label="mse = 0.0\nsamples = 1\nvalue = 1300000.0"] ;
1093 -> 1094 ;
1095 [label="mse = 0.0\nsamples = 1\nvalue = 1860000.0"] ;
1093 -> 1095 ;
1096 [label="X[3] <= -0.064\nmse = 25947605142.332\nsamples = 19\nvalue = 985196.97"] ;
1020 -> 1096 ;
1097 [label="X[5] <= -0.357\nmse = 11865867768.595\nsamples = 6\nvalue = 1142636.364"] ;
1096 -> 1097 ;
1098 [label="X[5] <= -0.631\nmse = 3913888888.889\nsamples = 3\nvalue = 1062333.333"] ;
1097 -> 1098 ;
1099 [label="mse = 0.0\nsamples = 1\nvalue = 1000000.0"] ;
1098 -> 1099 ;
1100 [label="X[5] <= -0.469\nmse = 56888888.889\nsamples = 2\nvalue = 1124666.667"] ;
1098 -> 1100 ;
1101 [label="mse = 0.0\nsamples = 1\nvalue = 1114000.0"] ;
1100 -> 1101 ;
1102 [label="mse = 0.0\nsamples = 1\nvalue = 1130000.0"] ;
1100 -> 1102 ;
1103 [label="X[2] <= -0.451\nmse = 4384000000.0\nsamples = 3\nvalue = 1239000.0"] ;
1097 -> 1103 ;
1104 [label="mse = 0.0\nsamples = 1\nvalue = 1370000.0"] ;
1103 -> 1104 ;
1105 [label="X[5] <= 0.069\nmse = 117187500.0\nsamples = 2\nvalue = 1206250.0"] ;
1103 -> 1105 ;
1106 [label="mse = 0.0\nsamples = 1\nvalue = 1225000.0"] ;
1105 -> 1106 ;
1107 [label="mse = 0.0\nsamples = 1\nvalue = 1200000.0"] ;
1105 -> 1107 ;
1108 [label="X[5] <= -0.146\nmse = 14398101756.198\nsamples = 13\nvalue = 906477.273"] ;
1096 -> 1108 ;
1109 [label="X[3] <= -0.054\nmse = 10135645061.729\nsamples = 11\nvalue = 874277.778"] ;
1108 -> 1109 ;
1110 [label="X[5] <= -0.391\nmse = 2160530612.245\nsamples = 5\nvalue = 810571.429"] ;
1109 -> 1110 ;
1111 [label="X[3] <= -0.063\nmse = 574250000.0\nsamples = 4\nvalue = 773500.0"] ;
1110 -> 1111 ;
1112 [label="mse = 0.0\nsamples = 1\nvalue = 735000.0"] ;
1111 -> 1112 ;
1113 [label="X[2] <= -0.598\nmse = 106888888.889\nsamples = 3\nvalue = 786333.333"] ;
1111 -> 1113 ;
1114 [label="mse = 0.0\nsamples = 1\nvalue = 800000.0"] ;
1113 -> 1114 ;
1115 [label="X[5] <= -0.43\nmse = 20250000.0\nsamples = 2\nvalue = 779500.0"] ;
1113 -> 1115 ;
1116 [label="mse = 0.0\nsamples = 1\nvalue = 775000.0"] ;
1115 -> 1116 ;
1117 [label="mse = 0.0\nsamples = 1\nvalue = 784000.0"] ;
1115 -> 1117 ;
1118 [label="mse = 0.0\nsamples = 1\nvalue = 860000.0"] ;
1110 -> 1118 ;
1119 [label="X[3] <= -0.047\nmse = 10984512396.694\nsamples = 6\nvalue = 914818.182"] ;
1109 -> 1119 ;
1120 [label="X[3] <= -0.051\nmse = 876160000.0\nsamples = 2\nvalue = 1010200.0"] ;
1119 -> 1120 ;
1121 [label="mse = 0.0\nsamples = 1\nvalue = 1025000.0"] ;
1120 -> 1121 ;
1122 [label="mse = 0.0\nsamples = 1\nvalue = 951000.0"] ;
1120 -> 1122 ;
1123 [label="X[5] <= -0.437\nmse = 5508888888.889\nsamples = 4\nvalue = 835333.333"] ;
1119 -> 1123 ;
1124 [label="mse = 0.0\nsamples = 1\nvalue = 1000000.0"] ;
1123 -> 1124 ;
1125 [label="X[3] <= -0.044\nmse = 103040000.0\nsamples = 3\nvalue = 802400.0"] ;
1123 -> 1125 ;
1126 [label="X[5] <= -0.288\nmse = 888888.889\nsamples = 2\nvalue = 810666.667"] ;
1125 -> 1126 ;
1127 [label="mse = 0.0\nsamples = 1\nvalue = 810000.0"] ;
1126 -> 1127 ;
1128 [label="mse = 0.0\nsamples = 1\nvalue = 812000.0"] ;
1126 -> 1128 ;
1129 [label="mse = 0.0\nsamples = 1\nvalue = 790000.0"] ;
1125 -> 1129 ;
1130 [label="X[5] <= 0.004\nmse = 7918171875.0\nsamples = 2\nvalue = 1051375.0"] ;
1108 -> 1130 ;
1131 [label="mse = 0.0\nsamples = 1\nvalue = 1205500.0"] ;
1130 -> 1131 ;
1132 [label="mse = 0.0\nsamples = 1\nvalue = 1000000.0"] ;
1130 -> 1132 ;
1133 [label="X[5] <= 0.143\nmse = 27516170400.0\nsamples = 15\nvalue = 826860.0"] ;
855 -> 1133 ;
1134 [label="X[1] <= -0.46\nmse = 20364792899.408\nsamples = 7\nvalue = 914230.769"] ;
1133 -> 1134 ;
1135 [label="mse = 0.0\nsamples = 1\nvalue = 630000.0"] ;
1134 -> 1135 ;
1136 [label="X[5] <= -0.069\nmse = 6708264462.81\nsamples = 6\nvalue = 965909.091"] ;
1134 -> 1136 ;
1137 [label="mse = 0.0\nsamples = 1\nvalue = 735000.0"] ;
1136 -> 1137 ;
1138 [label="X[0] <= -0.258\nmse = 1514000000.0\nsamples = 5\nvalue = 989000.0"] ;
1136 -> 1138 ;
1139 [label="X[5] <= 0.122\nmse = 372222222.222\nsamples = 3\nvalue = 936666.667"] ;
1138 -> 1139 ;
1140 [label="mse = 0.0\nsamples = 1\nvalue = 910000.0"] ;
1139 -> 1140 ;
1141 [label="X[3] <= -0.058\nmse = 25000000.0\nsamples = 2\nvalue = 950000.0"] ;
1139 -> 1141 ;
1142 [label="mse = 0.0\nsamples = 1\nvalue = 955000.0"] ;
1141 -> 1142 ;
1143 [label="mse = 0.0\nsamples = 1\nvalue = 945000.0"] ;
1141 -> 1143 ;
1144 [label="X[3] <= -0.065\nmse = 326530612.245\nsamples = 2\nvalue = 1011428.571"] ;
1138 -> 1144 ;
1145 [label="mse = 0.0\nsamples = 1\nvalue = 1000000.0"] ;
1144 -> 1145 ;
1146 [label="mse = 0.0\nsamples = 1\nvalue = 1040000.0"] ;
1144 -> 1146 ;
1147 [label="X[5] <= 0.351\nmse = 18034769097.222\nsamples = 8\nvalue = 732208.333"] ;
1133 -> 1147 ;
1148 [label="X[5] <= 0.236\nmse = 8978472222.222\nsamples = 5\nvalue = 636166.667"] ;
1147 -> 1148 ;
1149 [label="X[3] <= -0.066\nmse = 3399187500.0\nsamples = 3\nvalue = 691750.0"] ;
1148 -> 1149 ;
1150 [label="mse = 0.0\nsamples = 1\nvalue = 790000.0"] ;
1149 -> 1150 ;
1151 [label="X[3] <= -0.059\nmse = 242000000.0\nsamples = 2\nvalue = 659000.0"] ;
1149 -> 1151 ;
1152 [label="mse = 0.0\nsamples = 1\nvalue = 670000.0"] ;
1151 -> 1152 ;
1153 [label="mse = 0.0\nsamples = 1\nvalue = 637000.0"] ;
1151 -> 1153 ;
1154 [label="X[1] <= -0.46\nmse = 1600000000.0\nsamples = 2\nvalue = 525000.0"] ;
1148 -> 1154 ;
1155 [label="mse = 0.0\nsamples = 1\nvalue = 565000.0"] ;
1154 -> 1155 ;
1156 [label="mse = 0.0\nsamples = 1\nvalue = 485000.0"] ;
1154 -> 1156 ;
1157 [label="X[3] <= -0.063\nmse = 8643062500.0\nsamples = 3\nvalue = 828250.0"] ;
1147 -> 1157 ;
1158 [label="mse = 0.0\nsamples = 1\nvalue = 736500.0"] ;
1157 -> 1158 ;
1159 [label="X[0] <= -0.292\nmse = 450000000.0\nsamples = 2\nvalue = 920000.0"] ;
1157 -> 1159 ;
1160 [label="mse = 0.0\nsamples = 1\nvalue = 950000.0"] ;
1159 -> 1160 ;
1161 [label="mse = 0.0\nsamples = 1\nvalue = 905000.0"] ;
1159 -> 1161 ;
1162 [label="X[0] <= -0.309\nmse = 92286508460.18\nsamples = 264\nvalue = 1177747.319"] ;
680 -> 1162 ;
1163 [label="X[1] <= -0.46\nmse = 85820042257.249\nsamples = 167\nvalue = 1268473.462"] ;
1162 -> 1163 ;
1164 [label="X[0] <= -0.676\nmse = 42593060553.633\nsamples = 25\nvalue = 1036205.882"] ;
1163 -> 1164 ;
1165 [label="X[3] <= -0.03\nmse = 30076562500.0\nsamples = 8\nvalue = 1153750.0"] ;
1164 -> 1165 ;
1166 [label="X[3] <= -0.038\nmse = 25751171875.0\nsamples = 4\nvalue = 1049375.0"] ;
1165 -> 1166 ;
1167 [label="X[3] <= -0.04\nmse = 3025000000.0\nsamples = 2\nvalue = 1205000.0"] ;
1166 -> 1167 ;
1168 [label="mse = 0.0\nsamples = 1\nvalue = 1260000.0"] ;
1167 -> 1168 ;
1169 [label="mse = 0.0\nsamples = 1\nvalue = 1150000.0"] ;
1167 -> 1169 ;
1170 [label="X[0] <= -0.778\nmse = 39062500.0\nsamples = 2\nvalue = 893750.0"] ;
1166 -> 1170 ;
1171 [label="mse = 0.0\nsamples = 1\nvalue = 887500.0"] ;
1170 -> 1171 ;
1172 [label="mse = 0.0\nsamples = 1\nvalue = 900000.0"] ;
1170 -> 1172 ;
1173 [label="X[3] <= -0.002\nmse = 20855555555.556\nsamples = 4\nvalue = 1223333.333"] ;
1165 -> 1173 ;
1174 [label="X[0] <= -0.727\nmse = 1464000000.0\nsamples = 3\nvalue = 1286000.0"] ;
1173 -> 1174 ;
1175 [label="X[0] <= -0.889\nmse = 506250000.0\nsamples = 2\nvalue = 1242500.0"] ;
1174 -> 1175 ;
1176 [label="mse = 0.0\nsamples = 1\nvalue = 1265000.0"] ;
1175 -> 1176 ;
1177 [label="mse = 0.0\nsamples = 1\nvalue = 1220000.0"] ;
1175 -> 1177 ;
1178 [label="mse = 0.0\nsamples = 1\nvalue = 1315000.0"] ;
1174 -> 1178 ;
1179 [label="mse = 0.0\nsamples = 1\nvalue = 910000.0"] ;
1173 -> 1179 ;
1180 [label="X[3] <= 0.023\nmse = 39652624565.972\nsamples = 17\nvalue = 987229.167"] ;
1164 -> 1180 ;
1181 [label="X[3] <= -0.014\nmse = 36063042533.081\nsamples = 16\nvalue = 1002108.696"] ;
1180 -> 1181 ;
1182 [label="X[3] <= -0.016\nmse = 29651577806.122\nsamples = 11\nvalue = 939892.857"] ;
1181 -> 1182 ;
1183 [label="X[3] <= -0.04\nmse = 15508747933.884\nsamples = 9\nvalue = 986954.545"] ;
1182 -> 1183 ;
1184 [label="mse = 0.0\nsamples = 1\nvalue = 760000.0"] ;
1183 -> 1184 ;
